{"learner":{"attributes":{"scikit_learn":"{\"_estimator_type\": \"classifier\"}"},"feature_names":[],"feature_types":[],"gradient_booster":{"model":{"gbtree_model_param":{"num_parallel_tree":"1","num_trees":"100"},"iteration_indptr":[0,1,2,3,4,5,6,7,8,9,10,11,12,13,14,15,16,17,18,19,20,21,22,23,24,25,26,27,28,29,30,31,32,33,34,35,36,37,38,39,40,41,42,43,44,45,46,47,48,49,50,51,52,53,54,55,56,57,58,59,60,61,62,63,64,65,66,67,68,69,70,71,72,73,74,75,76,77,78,79,80,81,82,83,84,85,86,87,88,89,90,91,92,93,94,95,96,97,98,99,100],"tree_info":[0,0,0,0,0,0,0,0,0,0,0,0,0,0,0,0,0,0,0,0,0,0,0,0,0,0,0,0,0,0,0,0,0,0,0,0,0,0,0,0,0,0,0,0,0,0,0,0,0,0,0,0,0,0,0,0,0,0,0,0,0,0,0,0,0,0,0,0,0,0,0,0,0,0,0,0,0,0,0,0,0,0,0,0,0,0,0,0,0,0,0,0,0,0,0,0,0,0,0,0],"trees":[{"base_weights":[1.5509464E-7,9.4963896E-1,-6.935903E-1,-5.1240385E-2,1.3113179E0,-1.2426156E0,2.8584397E-1,7.722719E-1,-8.0991966E-1,1.6353208E0,7.4036574E-1,-1.4903936E0,-2.4504988E-1,-2.8689307E-1,1.1013285E0,1.3083605E0,-1.717983E-1,5.640988E-1,-1.0909032E0,1.6894757E0,-1.4927005E0,1.6001149E-1,1.3498515E0,-8.624891E-1,-1.6382831E0,-1.0301179E0,4.6531114E-1,6.866308E-1,-7.3190314E-1,4.6233192E-1,1.4750131E0,1.5843353E0,3.7563953E-1,8.050445E-1,-8.0925196E-1,-3.8305226E-1,1.386667E0,-1.3541192E0,2.4121847E-2,1.8280064E0,1.1444011E0,1.8709064E-1,-1.6980232E0,1.0588108E0,-3.491391E-1,1.5774482E0,5.417268E-1,-1.0578961E0,8.789131E-1,-1.719387E0,-1.0832753E0,-1.2345014E0,6.6884506E-1,9.5894504E-1,-5.238276E-1,-2.7963507E-1,1.1260945E0,-1.1128099E0,5.174532E-2,-3.0743667E-1,9.5555323E-1,5.740903E-1,1.6588038E0,9.823616E-2,5.1717675E-1,4.2120904E-1,-6.390532E-2,4.1803002E-1,-3.820139E-2,2.6235184E-1,-3.3121473E-1,2.7311704E-1,-3.595081E-1,-7.3194625E-3,5.067011E-1,-4.3706664E-1,2.0011054E-2,1.7972326E-1,-3.066058E-1,4.095311E-1,5.7380176E-1,4.228482E-1,-5.276483E-2,-3.4414503E-1,3.9960164E-1,-6.6433795E-2,-5.510381E-1,4.1794568E-1,-4.5905937E-2,-3.0611962E-1,6.16257E-2,3.184481E-1,5.378726E-1,3.206282E-1,-2.0692754E-1,-3.4847373E-1,4.2125338E-1,-5.603668E-3,4.732894E-1,1.05469085E-1,-5.1861286E-1,7.536309E-2,-3.7886098E-1,-1.8260598E-1,-4.694839E-1,-2.49335E-1,3.295342E-1,4.075714E-1,7.608776E-2,2.4274077E-1,-2.9980248E-1,-3.0051565E-1,1.7320433E-1,4.0040317E-1,4.412588E-2,1.9114937E-1,-3.7711388E-1,-1.4552958E-1,2.3691799E-1,-2.362245E-1,1.6133814E-1,5.284983E-2,3.9840633E-1,-7.0273474E-2,3.456344E-1,5.4177904E-1,3.0401298E-1],"categories":[],"categories_nodes":[],"categories_segments":[],"categories_sizes":[],"default_left":[0,0,0,0,0,0,0,0,0,0,0,0,0,0,0,0,0,0,0,0,0,0,0,0,0,0,0,0,0,0,0,0,0,0,0,0,0,0,0,0,0,0,0,0,0,0,0,0,0,0,0,0,0,0,0,0,0,0,0,0,0,0,0,0,0,0,0,0,0,0,0,0,0,0,0,0,0,0,0,0,0,0,0,0,0,0,0,0,0,0,0,0,0,0,0,0,0,0,0,0,0,0,0,0,0,0,0,0,0,0,0,0,0,0,0,0,0,0,0,0,0,0,0,0,0,0,0],"id":0,"left_children":[1,3,5,7,9,11,13,15,17,19,21,23,25,27,29,31,33,35,37,39,41,43,45,47,49,51,53,55,57,59,61,63,65,67,69,71,73,75,77,79,81,83,85,87,89,91,93,95,97,99,101,103,105,107,109,111,113,115,117,119,121,123,125,-1,-1,-1,-1,-1,-1,-1,-1,-1,-1,-1,-1,-1,-1,-1,-1,-1,-1,-1,-1,-1,-1,-1,-1,-1,-1,-1,-1,-1,-1,-1,-1,-1,-1,-1,-1,-1,-1,-1,-1,-1,-1,-1,-1,-1,-1,-1,-1,-1,-1,-1,-1,-1,-1,-1,-1,-1,-1,-1,-1,-1,-1,-1,-1],"loss_changes":[5.9036675E3,1.369593E3,2.7857595E3,6.286516E2,5.128877E2,8.201201E2,8.6971625E2,2.444274E2,2.0279562E2,3.0271533E2,3.5630914E2,2.4548486E2,3.6946756E2,4.745667E2,1.827461E2,7.865332E1,1.100225E2,7.0313705E1,1.27734436E2,1.2947754E2,1.0902367E1,2.3716367E2,8.9544556E1,1.7411966E2,9.495459E1,1.1007007E2,1.7044022E2,1.4630478E2,2.2436694E2,1.0846767E2,7.9232056E1,4.10625E1,4.3646793E1,3.8502296E1,5.3969223E1,4.5820053E1,2.0584259E1,5.1499756E1,5.1184998E1,5.1774902E1,1.2476782E2,8.010127E0,5.2170486E0,7.6128296E1,1.2345267E2,4.067047E1,7.182442E1,1.1856329E2,3.2576603E1,3.6805176E1,6.668915E1,5.719388E1,2.3100159E1,6.5196075E1,7.465977E1,6.758359E1,4.8101562E1,1.2844861E2,9.813934E1,4.5870163E1,5.0247437E1,3.9321964E1,3.631299E1,0E0,0E0,0E0,0E0,0E0,0E0,0E0,0E0,0E0,0E0,0E0,0E0,0E0,0E0,0E0,0E0,0E0,0E0,0E0,0E0,0E0,0E0,0E0,0E0,0E0,0E0,0E0,0E0,0E0,0E0,0E0,0E0,0E0,0E0,0E0,0E0,0E0,0E0,0E0,0E0,0E0,0E0,0E0,0E0,0E0,0E0,0E0,0E0,0E0,0E0,0E0,0E0,0E0,0E0,0E0,0E0,0E0,0E0,0E0,0E0,0E0,0E0,0E0,0E0],"parents":[2147483647,0,0,1,1,2,2,3,3,4,4,5,5,6,6,7,7,8,8,9,9,10,10,11,11,12,12,13,13,14,14,15,15,16,16,17,17,18,18,19,19,20,20,21,21,22,22,23,23,24,24,25,25,26,26,27,27,28,28,29,29,30,30,31,31,32,32,33,33,34,34,35,35,36,36,37,37,38,38,39,39,40,40,41,41,42,42,43,43,44,44,45,45,46,46,47,47,48,48,49,49,50,50,51,51,52,52,53,53,54,54,55,55,56,56,57,57,58,58,59,59,60,60,61,61,62,62],"right_children":[2,4,6,8,10,12,14,16,18,20,22,24,26,28,30,32,34,36,38,40,42,44,46,48,50,52,54,56,58,60,62,64,66,68,70,72,74,76,78,80,82,84,86,88,90,92,94,96,98,100,102,104,106,108,110,112,114,116,118,120,122,124,126,-1,-1,-1,-1,-1,-1,-1,-1,-1,-1,-1,-1,-1,-1,-1,-1,-1,-1,-1,-1,-1,-1,-1,-1,-1,-1,-1,-1,-1,-1,-1,-1,-1,-1,-1,-1,-1,-1,-1,-1,-1,-1,-1,-1,-1,-1,-1,-1,-1,-1,-1,-1,-1,-1,-1,-1,-1,-1,-1,-1,-1,-1,-1,-1],"split_conditions":[-1.853141E-4,-5.6752425E-2,1.0609598E-2,6.636122E-3,1.4399893E-2,2.877659E-3,-1.8316807E-2,3.351186E-2,-8.837725E-3,-2.7440098E-8,2.3820674E-2,-1.2419325E-2,7.952557E-3,3.6398077E-3,-2.2105971E-2,2.1477472E-2,4.1747686E-2,5.1402003E-2,2.9095128E-2,2.3297155E-32,-4.812924E-2,-3.0277614E-2,5.0809063E-2,2.1362126E-2,4.09566E-2,7.202945E-3,6.053873E-2,-5.3749636E-2,-2.6235009E-2,-4.4478998E-2,-2.4599135E-32,-3.2765098E-2,1.9171083E-32,-3.588126E-2,-5.902903E-2,1.675525E-2,7.789001E-3,5.6762304E-2,2.7892899E-2,-7.935465E-2,3.4624103E-2,-4.1107297E-2,-7.157647E-2,2.5251138E-32,-3.997764E-3,-1.2565687E-2,4.823499E-2,6.4213574E-2,-4.6727084E-2,-6.7144446E-2,8.8574635E-3,-2.4933573E-3,-7.446539E-2,5.778037E-3,-5.480302E-3,6.876823E-2,2.667878E-32,-8.999012E-3,1.4084267E-2,3.2233283E-2,-1.9009177E-2,-6.396432E-2,5.327051E-2,9.823616E-2,5.1717675E-1,4.2120904E-1,-6.390532E-2,4.1803002E-1,-3.820139E-2,2.6235184E-1,-3.3121473E-1,2.7311704E-1,-3.595081E-1,-7.3194625E-3,5.067011E-1,-4.3706664E-1,2.0011054E-2,1.7972326E-1,-3.066058E-1,4.095311E-1,5.7380176E-1,4.228482E-1,-5.276483E-2,-3.4414503E-1,3.9960164E-1,-6.6433795E-2,-5.510381E-1,4.1794568E-1,-4.5905937E-2,-3.0611962E-1,6.16257E-2,3.184481E-1,5.378726E-1,3.206282E-1,-2.0692754E-1,-3.4847373E-1,4.2125338E-1,-5.603668E-3,4.732894E-1,1.05469085E-1,-5.1861286E-1,7.536309E-2,-3.7886098E-1,-1.8260598E-1,-4.694839E-1,-2.49335E-1,3.295342E-1,4.075714E-1,7.608776E-2,2.4274077E-1,-2.9980248E-1,-3.0051565E-1,1.7320433E-1,4.0040317E-1,4.412588E-2,1.9114937E-1,-3.7711388E-1,-1.4552958E-1,2.3691799E-1,-2.362245E-1,1.6133814E-1,5.284983E-2,3.9840633E-1,-7.0273474E-2,3.456344E-1,5.4177904E-1,3.0401298E-1],"split_indices":[104,239,90,164,164,24,239,114,114,319,344,238,297,123,44,94,309,330,90,127,173,173,123,239,297,239,227,24,24,24,223,90,127,342,67,174,285,297,73,270,73,91,321,127,90,297,37,93,41,37,37,31,41,173,123,304,127,37,297,344,46,41,16,0,0,0,0,0,0,0,0,0,0,0,0,0,0,0,0,0,0,0,0,0,0,0,0,0,0,0,0,0,0,0,0,0,0,0,0,0,0,0,0,0,0,0,0,0,0,0,0,0,0,0,0,0,0,0,0,0,0,0,0,0,0,0,0],"split_type":[0,0,0,0,0,0,0,0,0,0,0,0,0,0,0,0,0,0,0,0,0,0,0,0,0,0,0,0,0,0,0,0,0,0,0,0,0,0,0,0,0,0,0,0,0,0,0,0,0,0,0,0,0,0,0,0,0,0,0,0,0,0,0,0,0,0,0,0,0,0,0,0,0,0,0,0,0,0,0,0,0,0,0,0,0,0,0,0,0,0,0,0,0,0,0,0,0,0,0,0,0,0,0,0,0,0,0,0,0,0,0,0,0,0,0,0,0,0,0,0,0,0,0,0,0,0,0],"sum_hessian":[8.961143E3,3.782252E3,5.178891E3,1.00419293E3,2.778059E3,3.3184521E3,1.8604388E3,4.815136E2,5.2267926E2,1.7711218E3,1.00693726E3,2.6578054E3,6.6064667E2,1.0932605E3,7.671784E2,3.0687137E2,1.7464224E2,8.8568565E1,4.3411072E2,1.7414326E3,2.9689182E1,5.164421E2,4.904952E2,5.0795944E2,2.149846E3,3.1360757E2,3.470391E2,3.427978E2,7.5046265E2,2.839184E2,4.8326004E2,2.36266E2,7.060536E1,6.885894E1,1.057833E2,4.141516E1,4.7153404E1,3.510309E2,8.307981E1,1.3866594E3,3.5477325E2,3.243356E0,2.6445826E1,1.8636823E2,3.3007385E2,3.8196753E2,1.0852768E2,4.570637E2,5.089574E1,1.8739113E3,2.7593475E2,2.8017606E2,3.3431515E1,2.3152571E2,1.1551337E2,1.07280235E2,2.3551755E2,5.047161E2,2.4574658E2,1.1102257E2,1.7289583E2,8.258083E1,4.006792E2,2.3950935E1,2.1231506E2,2.5198381E1,4.5406982E1,4.191414E1,2.6944803E1,1.5468313E1,9.031499E1,1.5967291E1,2.544787E1,8.482623E0,3.8670784E1,3.2732947E2,2.3701447E1,5.3889606E1,2.9190203E1,2.1705536E2,1.169604E3,2.9539487E2,5.9378365E1,1.4969335E0,1.7464224E0,2.4948893E0,2.3950935E1,1.4595102E2,4.0417206E1,1.4894489E2,1.8112895E2,1.1426592E2,2.677016E2,7.6094124E1,3.243356E1,4.391005E2,1.7963202E1,2.2703491E1,2.8192247E1,8.233134E0,1.8656781E3,3.268305E1,2.432517E2,9.779966E1,1.823764E2,7.2351785E0,2.6196337E1,1.4719846E2,8.4327255E1,3.018816E1,8.532521E1,5.8130917E1,4.914932E1,1.9385289E2,4.166465E1,3.8171806E1,4.6654428E2,1.4245818E2,1.03288414E2,7.085485E1,4.0167717E1,5.6384495E1,1.1651132E2,3.467896E1,4.790187E1,3.2483456E2,7.5844635E1],"tree_param":{"num_deleted":"0","num_feature":"384","num_nodes":"127","size_leaf_vector":"1"}},{"base_weights":[-3.202563E-3,-8.119363E-1,4.9493894E-1,1.4628766E-1,-1.0879526E0,9.3070966E-1,-2.6681057E-1,-5.199018E-1,9.035731E-1,-1.1944714E0,9.9124335E-2,1.1303635E0,2.4243006E-1,1.22801006E-1,-1.0334028E0,4.024273E-1,-9.383951E-1,-4.2601046E-1,1.1620445E0,-1.3135805E0,-5.299283E-1,-1.1695853E0,4.259458E-1,6.101696E-1,1.3078514E0,5.5756927E-1,-7.7852464E-1,-4.502748E-1,6.103359E-1,4.108191E-1,-1.1782163E0,-3.6643675E-1,1.0366405E0,-1.253573E0,-1.4924693E-1,7.261944E-1,-1.183144E0,1.3698956E0,8.504619E-2,-1.380263E0,-8.89811E-1,-1.0782894E0,-9.002975E-3,8.221197E-1,-1.3608259E0,-2.7099395E-1,8.8802075E-1,9.785919E-1,-1.4924794E-2,1.3302091E0,-1.682826E0,9.9398994E-1,-6.550582E-2,8.8469845E-1,-9.7613883E-1,-7.96601E-1,3.2312456E-1,4.8353493E-2,1.1055926E0,-9.822096E-1,7.845601E-1,-1.3057793E0,-6.38958E-1,-3.4785703E-1,1.8530756E-1,-4.4502918E-2,4.0213844E-1,2.0029496E-1,-4.006088E-1,-1.8894818E-1,2.3440437E-1,4.5644554E-1,-3.8602844E-2,2.711903E-1,-4.202551E-1,4.289162E-1,-3.3954456E-1,-1.5934555E-1,3.291725E-1,9.26491E-2,-4.189619E-1,-3.703932E-1,-1.3577704E-1,4.6749257E-2,-3.687626E-1,-2.0125653E-1,1.5061362E-1,-1.6994777E-1,4.5718685E-1,-4.4214812E-1,3.6921224E-1,-3.6765447E-1,1.3872251E-1,3.5773188E-1,-5.703297E-2,3.206841E-1,-3.315323E-1,1.2602808E-1,-2.1378517E-1,4.3284145E-1,2.921201E-1,-7.737172E-2,-5.4426754E-1,-3.5019707E-2,3.6037624E-1,-2.764186E-1,8.5849434E-2,3.9479083E-1,-2.8154108E-1,-3.5039443E-1,3.7539512E-2,-4.6303257E-2,-3.446209E-1,2.1310554E-1,-1.958201E-1,-1.5519564E-1,2.3737068E-1,3.7760714E-1,-8.8698104E-2,1.5421593E-1,-4.659357E-1,-2.0747171E-1,3.607108E-1,-4.0245828E-1,5.8806702E-2,-3.0712426E-1,3.553633E-2],"categories":[],"categories_nodes":[],"categories_segments":[],"categories_sizes":[],"default_left":[0,0,0,0,0,0,0,0,0,0,0,0,0,0,0,0,0,0,0,0,0,0,0,0,0,0,0,0,0,0,0,0,0,0,0,0,0,0,0,0,0,0,0,0,0,0,0,0,0,0,0,0,0,0,0,0,0,0,0,0,0,0,0,0,0,0,0,0,0,0,0,0,0,0,0,0,0,0,0,0,0,0,0,0,0,0,0,0,0,0,0,0,0,0,0,0,0,0,0,0,0,0,0,0,0,0,0,0,0,0,0,0,0,0,0,0,0,0,0,0,0,0,0,0,0,0,0],"id":1,"left_children":[1,3,5,7,9,11,13,15,17,19,21,23,25,27,29,31,33,35,37,39,41,43,45,47,49,51,53,55,57,59,61,63,65,67,69,71,73,75,77,79,81,83,85,87,89,91,93,95,97,99,101,103,105,107,109,111,113,115,117,119,121,123,125,-1,-1,-1,-1,-1,-1,-1,-1,-1,-1,-1,-1,-1,-1,-1,-1,-1,-1,-1,-1,-1,-1,-1,-1,-1,-1,-1,-1,-1,-1,-1,-1,-1,-1,-1,-1,-1,-1,-1,-1,-1,-1,-1,-1,-1,-1,-1,-1,-1,-1,-1,-1,-1,-1,-1,-1,-1,-1,-1,-1,-1,-1,-1,-1],"loss_changes":[3.4460447E3,8.625078E2,1.7573811E3,3.6876663E2,3.2020923E2,4.6246338E2,5.756742E2,1.5053067E2,1.1803375E2,1.8318237E2,8.731188E1,2.4017358E2,2.4445546E2,3.574952E2,1.3631427E2,5.9926586E1,6.6443756E1,5.0060135E1,6.404526E1,5.4420654E1,1.0133103E2,1.7555698E1,5.4090958E1,1.5335594E2,1.3229736E2,1.5781558E2,5.979747E1,1.5783057E2,1.9234186E2,3.1971466E1,3.9788025E1,4.4375225E1,2.4384773E1,3.0951752E1,3.519348E1,1.5822089E1,1.6903595E1,3.756598E1,3.0167515E1,4.716211E1,4.0233658E1,3.2380356E1,6.221505E1,5.1552773E0,1.3454346E1,4.7772404E1,3.3304626E1,8.005658E1,7.5537674E1,7.611035E1,2.3171463E0,7.869537E1,7.247186E1,1.6619568E1,3.4105865E1,9.178549E1,6.9489914E1,1.3692532E2,7.9189514E1,1.200705E1,3.031639E1,2.5850342E1,3.3616104E1,0E0,0E0,0E0,0E0,0E0,0E0,0E0,0E0,0E0,0E0,0E0,0E0,0E0,0E0,0E0,0E0,0E0,0E0,0E0,0E0,0E0,0E0,0E0,0E0,0E0,0E0,0E0,0E0,0E0,0E0,0E0,0E0,0E0,0E0,0E0,0E0,0E0,0E0,0E0,0E0,0E0,0E0,0E0,0E0,0E0,0E0,0E0,0E0,0E0,0E0,0E0,0E0,0E0,0E0,0E0,0E0,0E0,0E0,0E0,0E0,0E0,0E0,0E0,0E0],"parents":[2147483647,0,0,1,1,2,2,3,3,4,4,5,5,6,6,7,7,8,8,9,9,10,10,11,11,12,12,13,13,14,14,15,15,16,16,17,17,18,18,19,19,20,20,21,21,22,22,23,23,24,24,25,25,26,26,27,27,28,28,29,29,30,30,31,31,32,32,33,33,34,34,35,35,36,36,37,37,38,38,39,39,40,40,41,41,42,42,43,43,44,44,45,45,46,46,47,47,48,48,49,49,50,50,51,51,52,52,53,53,54,54,55,55,56,56,57,57,58,58,59,59,60,60,61,61,62,62],"right_children":[2,4,6,8,10,12,14,16,18,20,22,24,26,28,30,32,34,36,38,40,42,44,46,48,50,52,54,56,58,60,62,64,66,68,70,72,74,76,78,80,82,84,86,88,90,92,94,96,98,100,102,104,106,108,110,112,114,116,118,120,122,124,126,-1,-1,-1,-1,-1,-1,-1,-1,-1,-1,-1,-1,-1,-1,-1,-1,-1,-1,-1,-1,-1,-1,-1,-1,-1,-1,-1,-1,-1,-1,-1,-1,-1,-1,-1,-1,-1,-1,-1,-1,-1,-1,-1,-1,-1,-1,-1,-1,-1,-1,-1,-1,-1,-1,-1,-1,-1,-1,-1,-1,-1,-1,-1,-1],"split_conditions":[-1.39439795E-2,-1.0222142E-2,2.3726675E-32,-3.115287E-2,5.9808135E-2,2.551252E-2,8.504072E-3,-7.6356125E-3,3.3074382E-3,1.1060547E-2,-7.964739E-2,-1.6630819E-2,1.8297683E-2,-3.719614E-2,-1.6133163E-2,-5.6714702E-2,-1.0466168E-3,-2.4016635E-3,4.0722255E-2,7.449592E-2,2.651497E-4,7.0760325E-3,-1.7171921E-2,6.1681412E-2,-5.6084095E-33,-1.375518E-2,-6.6700816E-2,5.574511E-2,4.530739E-2,-1.9573199E-2,2.772444E-2,-2.1632537E-2,-5.315888E-2,-4.44046E-2,2.3928892E-2,-1.55559E-2,-3.8807106E-3,-6.889615E-33,6.7293324E-5,-5.1882345E-2,-5.7285346E-2,-7.525627E-2,-5.084049E-2,8.298694E-3,4.8939306E-3,-1.5370122E-2,6.261438E-2,-8.042526E-33,4.6951905E-2,2.6144223E-2,-6.2195793E-2,-3.5555948E-2,-6.431604E-2,3.6620446E-2,2.4528122E-2,1.8924454E-2,6.321785E-2,-2.3456119E-2,4.0208448E-2,2.8822694E-2,1.8219987E-2,1.1786694E-1,-4.794939E-2,-3.4785703E-1,1.8530756E-1,-4.4502918E-2,4.0213844E-1,2.0029496E-1,-4.006088E-1,-1.8894818E-1,2.3440437E-1,4.5644554E-1,-3.8602844E-2,2.711903E-1,-4.202551E-1,4.289162E-1,-3.3954456E-1,-1.5934555E-1,3.291725E-1,9.26491E-2,-4.189619E-1,-3.703932E-1,-1.3577704E-1,4.6749257E-2,-3.687626E-1,-2.0125653E-1,1.5061362E-1,-1.6994777E-1,4.5718685E-1,-4.4214812E-1,3.6921224E-1,-3.6765447E-1,1.3872251E-1,3.5773188E-1,-5.703297E-2,3.206841E-1,-3.315323E-1,1.2602808E-1,-2.1378517E-1,4.3284145E-1,2.921201E-1,-7.737172E-2,-5.4426754E-1,-3.5019707E-2,3.6037624E-1,-2.764186E-1,8.5849434E-2,3.9479083E-1,-2.8154108E-1,-3.5039443E-1,3.7539512E-2,-4.6303257E-2,-3.446209E-1,2.1310554E-1,-1.958201E-1,-1.5519564E-1,2.3737068E-1,3.7760714E-1,-8.8698104E-2,1.5421593E-1,-4.659357E-1,-2.0747171E-1,3.607108E-1,-4.0245828E-1,5.8806702E-2,-3.0712426E-1,3.553633E-2],"split_indices":[90,104,127,239,297,104,238,73,152,24,239,14,48,24,164,352,24,173,37,109,285,99,24,309,223,321,137,90,330,383,297,305,353,114,286,75,99,223,24,71,239,137,239,0,215,14,180,223,186,73,356,297,24,73,35,186,186,239,48,179,320,330,239,0,0,0,0,0,0,0,0,0,0,0,0,0,0,0,0,0,0,0,0,0,0,0,0,0,0,0,0,0,0,0,0,0,0,0,0,0,0,0,0,0,0,0,0,0,0,0,0,0,0,0,0,0,0,0,0,0,0,0,0,0,0,0,0],"split_type":[0,0,0,0,0,0,0,0,0,0,0,0,0,0,0,0,0,0,0,0,0,0,0,0,0,0,0,0,0,0,0,0,0,0,0,0,0,0,0,0,0,0,0,0,0,0,0,0,0,0,0,0,0,0,0,0,0,0,0,0,0,0,0,0,0,0,0,0,0,0,0,0,0,0,0,0,0,0,0,0,0,0,0,0,0,0,0,0,0,0,0,0,0,0,0,0,0,0,0,0,0,0,0,0,0,0,0,0,0,0,0,0,0,0,0,0,0,0,0,0,0,0,0,0,0,0,0],"sum_hessian":[8.551871E3,3.2594758E3,5.2923955E3,7.2902997E2,2.5304458E3,3.366382E3,1.9260134E3,3.8800903E2,3.410209E2,2.3220752E3,2.0837048E2,2.608946E3,7.5743616E2,1.2775522E3,6.4846124E2,1.2111614E2,2.6689288E2,5.5398975E1,2.8562192E2,1.9683093E3,3.5376602E2,4.2153477E1,1.6621701E2,6.648366E2,1.9441094E3,5.791295E2,1.7830666E2,5.872923E2,6.902599E2,5.892883E1,5.895324E2,5.493727E1,6.617887E1,1.9030034E2,7.6592545E1,2.1984245E1,3.341473E1,2.391887E2,4.6433228E1,1.6987452E3,2.6956403E2,1.7182332E2,1.819427E2,3.403921E0,3.8749554E1,6.643212E1,9.978489E1,4.1794174E2,2.4689485E2,1.9302346E3,1.3874778E1,3.4022812E2,2.3890138E2,1.8566288E1,1.5974037E2,4.0562466E2,1.8166765E2,3.238619E2,3.6639798E2,1.2121359E1,4.680747E1,4.7560532E2,1.13927086E2,3.0322691E1,2.461458E1,1.3609579E1,5.2569294E1,7.478116E0,1.8282224E2,5.0721836E1,2.5870712E1,1.0985029E1,1.0999216E1,2.8585057E0,3.0556227E1,2.3402092E2,5.1677856E0,2.9157907E1,1.727532E1,1.6041975E1,1.6827034E3,1.4968483E2,1.1987917E2,1.8718998E1,1.5310431E2,7.913861E1,1.0280409E2,1.2075588E0,2.1963623E0,3.754379E1,1.2057656E0,2.8573193E1,3.7858925E1,7.773092E1,2.205397E1,4.010386E2,1.690315E1,1.523198E2,9.4575066E1,1.4645859E3,4.6564865E2,1.4215816E0,1.2453197E1,5.3572357E1,2.8665576E2,6.910204E1,1.6979935E2,1.5239564E1,3.3267245E0,1.3599016E2,2.3750212E1,1.4414963E2,2.6147504E2,1.3025403E2,5.141362E1,1.8403268E2,1.3982922E2,3.3040088E2,3.59971E1,3.3751686E0,8.746191E0,1.0181322E1,3.662615E1,4.6465167E2,1.0953644E1,7.5313705E1,3.8613384E1],"tree_param":{"num_deleted":"0","num_feature":"384","num_nodes":"127","size_leaf_vector":"1"}},{"base_weights":[-5.541498E-3,5.5663174E-1,-4.8382318E-1,1.2322819E-3,9.243655E-1,1.05899386E-1,-8.7408835E-1,7.1513987E-1,-4.5780614E-1,9.9725085E-1,-1.0024228E0,6.760288E-1,-2.3427905E-1,-1.0539074E0,-1.6004787E-1,1.1416284E0,3.6141658E-1,3.266249E-1,-7.652733E-1,4.2519712E-1,1.1586765E0,7.318184E-1,-1.2820976E0,9.94328E-1,5.5225912E-2,-5.247745E-1,5.789263E-1,7.9874724E-2,-1.1124665E0,4.1945496E-1,-6.7946315E-1,1.245183E0,1.138158E-1,7.738862E-1,-2.7831984E-1,-2.4616541E-1,7.161184E-1,-1.7562492E-1,-1.056581E0,-2.1217667E-1,8.3644855E-1,8.86235E-1,1.3411974E0,-3.2920727E-1,1.2526517E0,-1.4291962E0,1.1907766E-1,4.0963244E-1,1.1998699E0,-3.438598E-1,8.845795E-1,-8.0184853E-1,1.2440269E-2,8.890426E-1,-3.3372614E-1,-7.87441E-1,5.233786E-1,-7.155894E-1,-1.223348E0,-6.738073E-1,6.546375E-1,-9.5430946E-1,1.6109098E-2,-3.7354848E-1,3.8275993E-1,2.8842992E-1,-2.0607074E-1,3.3081692E-1,-6.3967463E-3,1.40098E-1,-2.0465678E-1,1.5994316E-1,-1.9621034E-1,3.0355495E-1,-2.6369872E-2,1.06908076E-1,-2.516722E-1,-3.3886844E-1,7.9877615E-2,-2.1998288E-1,1.091788E-1,1.0988071E-1,3.6304706E-1,1.4524907E-1,3.523994E-1,2.204235E-1,4.0967762E-1,3.704509E-2,4.1409793E-1,-4.5450635E-2,-4.646792E-1,3.3266464E-1,-3.528106E-1,-8.40773E-2,3.5969323E-1,1.9520575E-1,4.2017063E-1,1.1261482E-1,-2.1375978E-1,-1.4238018E-1,3.2556534E-1,-3.3212444E-1,-1.14084564E-1,1.4548036E-1,-1.2667699E-1,1.04642935E-1,3.5162288E-1,-2.8340352E-1,1.1818127E-1,-2.9000562E-1,3.2845473E-1,2.4500291E-1,-2.9435918E-1,1.1491042E-1,-2.6006964E-1,-3.8897625E-1,-2.8948462E-1,9.1521755E-2,-3.37766E-1,4.0202942E-1,1.1365584E-1,-3.041466E-1,3.6576825E-1,2.0558743E-1,-1.9294746E-1],"categories":[],"categories_nodes":[],"categories_segments":[],"categories_sizes":[],"default_left":[0,0,0,0,0,0,0,0,0,0,0,0,0,0,0,0,0,0,0,0,0,0,0,0,0,0,0,0,0,0,0,0,0,0,0,0,0,0,0,0,0,0,0,0,0,0,0,0,0,0,0,0,0,0,0,0,0,0,0,0,0,0,0,0,0,0,0,0,0,0,0,0,0,0,0,0,0,0,0,0,0,0,0,0,0,0,0,0,0,0,0,0,0,0,0,0,0,0,0,0,0,0,0,0,0,0,0,0,0,0,0,0,0,0,0,0,0,0,0,0,0,0,0,0,0],"id":2,"left_children":[1,3,5,7,9,11,13,15,17,19,21,23,25,27,29,31,33,35,37,39,41,43,45,47,49,51,53,55,57,59,61,63,65,67,69,71,73,75,77,79,81,83,85,-1,87,89,91,93,95,97,99,101,103,105,107,109,111,113,115,117,119,121,123,-1,-1,-1,-1,-1,-1,-1,-1,-1,-1,-1,-1,-1,-1,-1,-1,-1,-1,-1,-1,-1,-1,-1,-1,-1,-1,-1,-1,-1,-1,-1,-1,-1,-1,-1,-1,-1,-1,-1,-1,-1,-1,-1,-1,-1,-1,-1,-1,-1,-1,-1,-1,-1,-1,-1,-1,-1,-1,-1,-1,-1,-1],"loss_changes":[2.1193977E3,7.4004443E2,9.802871E2,4.7367572E2,3.0714966E2,3.2927707E2,3.28917E2,8.492325E1,2.1243184E2,1.9352832E2,3.9719482E1,1.2530432E2,2.5155052E2,1.3601099E2,1.5583817E2,2.7104736E1,8.2193665E1,5.5599827E1,1.0842651E2,1.21797806E2,8.02666E1,1.2559629E1,1.4436577E1,4.9902252E1,7.1824394E1,1.16729645E2,7.9659294E1,3.9446365E1,8.479346E1,6.3404102E1,5.218756E1,1.9351501E1,1.7310116E1,4.948591E1,3.7198627E1,3.2546654E1,3.5310165E1,7.450047E1,4.1140198E1,5.5134262E1,4.9145905E1,7.598352E1,1.3479614E1,0E0,1.2143154E0,9.360153E0,1.091747E1,6.055601E1,3.322809E1,3.9141884E1,1.9735096E1,6.614923E1,5.520956E1,3.1634079E1,3.2311165E1,1.277706E1,3.0696165E1,7.140114E1,2.7519287E1,1.9746532E1,3.7685066E1,2.6540787E1,3.4973743E1,0E0,0E0,0E0,0E0,0E0,0E0,0E0,0E0,0E0,0E0,0E0,0E0,0E0,0E0,0E0,0E0,0E0,0E0,0E0,0E0,0E0,0E0,0E0,0E0,0E0,0E0,0E0,0E0,0E0,0E0,0E0,0E0,0E0,0E0,0E0,0E0,0E0,0E0,0E0,0E0,0E0,0E0,0E0,0E0,0E0,0E0,0E0,0E0,0E0,0E0,0E0,0E0,0E0,0E0,0E0,0E0,0E0,0E0,0E0,0E0,0E0,0E0],"parents":[2147483647,0,0,1,1,2,2,3,3,4,4,5,5,6,6,7,7,8,8,9,9,10,10,11,11,12,12,13,13,14,14,15,15,16,16,17,17,18,18,19,19,20,20,21,21,22,22,23,23,24,24,25,25,26,26,27,27,28,28,29,29,30,30,31,31,32,32,33,33,34,34,35,35,36,36,37,37,38,38,39,39,40,40,41,41,42,42,44,44,45,45,46,46,47,47,48,48,49,49,50,50,51,51,52,52,53,53,54,54,55,55,56,56,57,57,58,58,59,59,60,60,61,61,62,62],"right_children":[2,4,6,8,10,12,14,16,18,20,22,24,26,28,30,32,34,36,38,40,42,44,46,48,50,52,54,56,58,60,62,64,66,68,70,72,74,76,78,80,82,84,86,-1,88,90,92,94,96,98,100,102,104,106,108,110,112,114,116,118,120,122,124,-1,-1,-1,-1,-1,-1,-1,-1,-1,-1,-1,-1,-1,-1,-1,-1,-1,-1,-1,-1,-1,-1,-1,-1,-1,-1,-1,-1,-1,-1,-1,-1,-1,-1,-1,-1,-1,-1,-1,-1,-1,-1,-1,-1,-1,-1,-1,-1,-1,-1,-1,-1,-1,-1,-1,-1,-1,-1,-1,-1,-1,-1],"split_conditions":[2.147847E-2,-4.256697E-2,-8.498394E-3,1.4986668E-2,-3.1451492E-8,1.8816888E-2,3.5225347E-2,3.9456785E-2,-1.0326127E-2,-2.3421273E-2,7.5277328E-3,1.4031843E-3,6.4740755E-2,-1.9823227E-2,4.048786E-2,6.048836E-2,6.920289E-3,-1.2921209E-2,-5.4978803E-2,-7.049497E-2,2.8285164E-2,-3.3302236E-2,4.931055E-2,-5.811671E-2,-2.2270847E-3,1.0799994E-2,2.5978189E-2,-3.856731E-2,-1.4907029E-2,-7.410062E-2,-2.1565221E-3,-5.0863723E-34,-4.8543107E-2,2.4248274E-2,-2.3653952E-2,2.0337792E-32,7.052966E-3,9.909135E-3,4.6258118E-2,2.3239993E-2,2.4195602E-2,-4.7763083E-2,-8.364311E-2,-3.2920727E-1,-5.764877E-2,-4.497872E-2,7.951386E-2,1.1521707E-2,-2.8211497E-2,1.07282045E-4,-8.195247E-2,-1.3089336E-3,-5.1678307E-2,-2.0137569E-2,7.1928024E-2,4.8305023E-2,-6.409039E-3,-3.0796843E-2,5.953425E-2,-5.8826864E-2,-5.6822184E-3,6.284283E-2,7.4123093E-3,-3.7354848E-1,3.8275993E-1,2.8842992E-1,-2.0607074E-1,3.3081692E-1,-6.3967463E-3,1.40098E-1,-2.0465678E-1,1.5994316E-1,-1.9621034E-1,3.0355495E-1,-2.6369872E-2,1.06908076E-1,-2.516722E-1,-3.3886844E-1,7.9877615E-2,-2.1998288E-1,1.091788E-1,1.0988071E-1,3.6304706E-1,1.4524907E-1,3.523994E-1,2.204235E-1,4.0967762E-1,3.704509E-2,4.1409793E-1,-4.5450635E-2,-4.646792E-1,3.3266464E-1,-3.528106E-1,-8.40773E-2,3.5969323E-1,1.9520575E-1,4.2017063E-1,1.1261482E-1,-2.1375978E-1,-1.4238018E-1,3.2556534E-1,-3.3212444E-1,-1.14084564E-1,1.4548036E-1,-1.2667699E-1,1.04642935E-1,3.5162288E-1,-2.8340352E-1,1.1818127E-1,-2.9000562E-1,3.2845473E-1,2.4500291E-1,-2.9435918E-1,1.1491042E-1,-2.6006964E-1,-3.8897625E-1,-2.8948462E-1,9.1521755E-2,-3.37766E-1,4.0202942E-1,1.1365584E-1,-3.041466E-1,3.6576825E-1,2.0558743E-1,-1.9294746E-1],"split_indices":[164,239,238,114,319,37,297,309,173,221,99,48,330,313,227,5,59,46,332,41,292,353,144,289,105,297,376,239,48,239,24,127,79,94,104,127,137,48,242,320,320,270,242,0,12,173,99,46,44,33,18,296,342,49,304,225,118,173,109,342,71,90,240,0,0,0,0,0,0,0,0,0,0,0,0,0,0,0,0,0,0,0,0,0,0,0,0,0,0,0,0,0,0,0,0,0,0,0,0,0,0,0,0,0,0,0,0,0,0,0,0,0,0,0,0,0,0,0,0,0,0,0,0,0,0],"split_type":[0,0,0,0,0,0,0,0,0,0,0,0,0,0,0,0,0,0,0,0,0,0,0,0,0,0,0,0,0,0,0,0,0,0,0,0,0,0,0,0,0,0,0,0,0,0,0,0,0,0,0,0,0,0,0,0,0,0,0,0,0,0,0,0,0,0,0,0,0,0,0,0,0,0,0,0,0,0,0,0,0,0,0,0,0,0,0,0,0,0,0,0,0,0,0,0,0,0,0,0,0,0,0,0,0,0,0,0,0,0,0,0,0,0,0,0,0,0,0,0,0,0,0,0,0],"sum_hessian":[7.880399E3,3.622427E3,4.2579717E3,1.4434077E3,2.1790193E3,1.6959626E3,2.5620093E3,5.646666E2,8.78741E2,2.1000618E3,7.89574E1,6.334056E2,1.0625571E3,2.0462258E3,5.1578345E2,2.5499208E2,3.0967456E2,2.4742676E2,6.313143E2,4.629857E2,1.6370762E3,1.0740394E1,6.8217E1,4.1832138E2,2.1508418E2,7.8315204E2,2.7940503E2,1.0047779E2,1.945748E3,2.4388147E2,2.7190198E2,2.3146042E2,2.3531666E1,1.881532E2,1.21521355E2,1.0029728E2,1.4712949E2,2.0928815E2,4.2202612E2,1.8176427E2,2.8122144E2,6.59108E2,9.7796814E2,2.1350684E0,8.605325E0,6.171773E1,6.4992747E0,1.0958442E2,3.0873697E2,1.4560454E2,6.947965E1,5.163478E2,2.6680423E2,2.0856216E2,7.0842865E1,3.3733364E1,6.674443E1,4.2652933E2,1.5192188E3,4.284562E1,2.0103586E2,1.9462604E2,7.727592E1,2.3353698E0,2.2912505E2,1.1333566E1,1.21981E1,1.3283586E2,5.5317337E1,4.2652607E1,7.886875E1,3.435278E1,6.5944496E1,1.0737622E2,3.9753265E1,1.1639576E2,9.2892395E1,4.00099E2,2.192714E1,9.52951E1,8.646918E1,1.25413284E2,1.5580814E2,2.7643524E2,3.8267276E2,3.9021057E1,9.389471E2,1.0739937E0,7.531331E0,5.482191E0,5.623554E1,3.7653553E0,2.7339194E0,5.882026E1,5.076416E1,8.376583E1,2.2497113E2,4.93363E1,9.6268234E1,8.761476E0,6.0718174E1,2.985548E2,2.1779298E2,1.2778866E2,1.3901558E2,7.246979E1,1.3609238E2,3.8347645E1,3.249522E1,3.1244484E1,2.4888785E0,5.6238636E1,1.0505793E1,5.1447647E1,3.7508167E2,1.1805822E3,3.3863654E2,1.3638839E1,2.920678E1,5.6570686E1,1.4446516E2,1.8995845E2,4.667591E0,3.832999E1,3.8945927E1],"tree_param":{"num_deleted":"0","num_feature":"384","num_nodes":"125","size_leaf_vector":"1"}},{"base_weights":[-4.8901034E-3,-6.76243E-1,2.7736747E-1,-9.3297553E-1,-7.0947E-2,7.2764075E-1,-8.952705E-2,4.3936545E-1,-9.9033695E-1,-5.068966E-1,5.209885E-1,7.8877145E-1,-8.194932E-1,2.6115644E-1,-5.8196473E-1,1.042253E0,-7.372335E-1,-1.0792145E0,-4.1511893E-1,3.451988E-1,-7.5185615E-1,-2.5213972E-1,8.870006E-1,9.870417E-1,3.7879038E-1,9.417128E-1,-1.1135571E0,5.814758E-1,-3.354411E-1,-7.370196E-1,3.058864E-1,1.2605708E0,-4.064931E-1,1.1706748E0,-1.0906848E0,-1.1270514E0,-4.976067E-1,-5.614974E-1,9.475612E-1,6.872368E-1,-6.907434E-1,-9.483201E-1,-3.4493856E-2,6.536756E-1,-6.369029E-1,1.1287901E0,-1.8323123E-1,1.103246E0,4.4736806E-1,6.525896E-1,-2.432448E-1,-6.024987E-1,1.3262924E0,-1.8391813E-1,-1.3823642E0,-5.1526126E-2,8.3764136E-1,-6.136898E-1,4.383594E-1,-1.0416675E0,-3.079554E-1,-4.2608434E-1,6.101698E-1,4.0685084E-1,-1.8058155E-1,-3.7131763E-1,3.053271E-1,4.653533E-1,2.1178316E-2,-3.7753266E-1,8.685008E-2,-3.4739935E-1,-1.2666205E-1,3.1252983E-1,-2.1575461E-1,-2.081984E-1,1.9049373E-1,-2.172455E-1,3.8768163E-1,4.6467367E-3,3.4030774E-1,1.570977E-1,-3.372799E-1,3.9452422E-2,-3.1725934E-1,-2.6296797E-1,2.0944424E-1,3.1383595E-1,-3.0132335E-1,3.556213E-1,-2.5844577E-1,3.7317482E-1,9.499492E-3,2.2621486E-1,-2.5792557E-1,3.4769326E-1,1.7341031E-1,-4.9667664E-2,2.476039E-1,2.3816548E-1,-9.329148E-2,-1.8472283E-1,1.6612622E-1,4.5083016E-2,-3.0045936E-1,1.1529571E-1,4.1748518E-1,1.6430211E-1,-3.9592215E-1,-4.402432E-1,9.348629E-2,-1.7109567E-1,1.0151162E-1,-3.374894E-2,2.878107E-1,-6.8628035E-2,-2.984391E-1,3.3359593E-1,2.5210364E-2,-3.257904E-1,1.2548923E-2,-1.6937952E-1,1.7416212E-1,-2.900529E-1,3.1167966E-1,-1.4968726E-1,2.4228203E-1],"categories":[],"categories_nodes":[],"categories_segments":[],"categories_sizes":[],"default_left":[0,0,0,0,0,0,0,0,0,0,0,0,0,0,0,0,0,0,0,0,0,0,0,0,0,0,0,0,0,0,0,0,0,0,0,0,0,0,0,0,0,0,0,0,0,0,0,0,0,0,0,0,0,0,0,0,0,0,0,0,0,0,0,0,0,0,0,0,0,0,0,0,0,0,0,0,0,0,0,0,0,0,0,0,0,0,0,0,0,0,0,0,0,0,0,0,0,0,0,0,0,0,0,0,0,0,0,0,0,0,0,0,0,0,0,0,0,0,0,0,0,0,0,0,0,0,0],"id":3,"left_children":[1,3,5,7,9,11,13,15,17,19,21,23,25,27,29,31,33,35,37,39,41,43,45,47,49,51,53,55,57,59,61,63,65,67,69,71,73,75,77,79,81,83,85,87,89,91,93,95,97,99,101,103,105,107,109,111,113,115,117,119,121,123,125,-1,-1,-1,-1,-1,-1,-1,-1,-1,-1,-1,-1,-1,-1,-1,-1,-1,-1,-1,-1,-1,-1,-1,-1,-1,-1,-1,-1,-1,-1,-1,-1,-1,-1,-1,-1,-1,-1,-1,-1,-1,-1,-1,-1,-1,-1,-1,-1,-1,-1,-1,-1,-1,-1,-1,-1,-1,-1,-1,-1,-1,-1,-1,-1],"loss_changes":[1.3612253E3,3.3034644E2,8.355371E2,1.1795508E2,1.6395302E2,2.1540613E2,4.8152838E2,4.374803E1,7.282825E1,7.661203E1,7.64917E1,1.7723254E2,4.600388E1,3.1145853E2,1.5988129E2,1.3314522E1,1.5514697E1,3.396289E1,3.9118534E1,2.965873E1,4.00542E1,3.0869646E1,4.759944E1,9.182471E1,1.2173453E2,8.496402E0,1.8447914E1,1.71949E2,1.22917625E2,1.287727E2,3.8820965E1,7.12286E0,8.43037E0,1.4737225E0,4.608618E0,2.4503052E1,3.3525734E1,2.8232784E1,1.1963358E1,1.8730743E1,1.1614495E1,2.6466202E1,3.897794E1,1.8322872E1,2.6327423E1,1.8847809E1,2.259525E1,3.4765015E1,6.095022E1,6.7766846E1,6.532903E1,1.133342E0,1.2293053E-1,1.5630105E1,8.805435E0,6.2163433E1,8.740411E1,6.1297714E1,3.60057E1,2.7746704E1,9.4157776E1,4.174582E1,2.7273178E1,0E0,0E0,0E0,0E0,0E0,0E0,0E0,0E0,0E0,0E0,0E0,0E0,0E0,0E0,0E0,0E0,0E0,0E0,0E0,0E0,0E0,0E0,0E0,0E0,0E0,0E0,0E0,0E0,0E0,0E0,0E0,0E0,0E0,0E0,0E0,0E0,0E0,0E0,0E0,0E0,0E0,0E0,0E0,0E0,0E0,0E0,0E0,0E0,0E0,0E0,0E0,0E0,0E0,0E0,0E0,0E0,0E0,0E0,0E0,0E0,0E0,0E0,0E0,0E0],"parents":[2147483647,0,0,1,1,2,2,3,3,4,4,5,5,6,6,7,7,8,8,9,9,10,10,11,11,12,12,13,13,14,14,15,15,16,16,17,17,18,18,19,19,20,20,21,21,22,22,23,23,24,24,25,25,26,26,27,27,28,28,29,29,30,30,31,31,32,32,33,33,34,34,35,35,36,36,37,37,38,38,39,39,40,40,41,41,42,42,43,43,44,44,45,45,46,46,47,47,48,48,49,49,50,50,51,51,52,52,53,53,54,54,55,55,56,56,57,57,58,58,59,59,60,60,61,61,62,62],"right_children":[2,4,6,8,10,12,14,16,18,20,22,24,26,28,30,32,34,36,38,40,42,44,46,48,50,52,54,56,58,60,62,64,66,68,70,72,74,76,78,80,82,84,86,88,90,92,94,96,98,100,102,104,106,108,110,112,114,116,118,120,122,124,126,-1,-1,-1,-1,-1,-1,-1,-1,-1,-1,-1,-1,-1,-1,-1,-1,-1,-1,-1,-1,-1,-1,-1,-1,-1,-1,-1,-1,-1,-1,-1,-1,-1,-1,-1,-1,-1,-1,-1,-1,-1,-1,-1,-1,-1,-1,-1,-1,-1,-1,-1,-1,-1,-1,-1,-1,-1,-1,-1,-1,-1,-1,-1,-1],"split_conditions":[-2.6152257E-2,-2.1565221E-3,2.1207615E-32,-3.351878E-2,-7.1176398E-3,-3.1451492E-8,2.034486E-2,1.8539114E-2,6.0840305E-2,-2.241221E-2,-1.9527894E-2,5.536106E-2,5.75218E-3,5.615459E-3,-3.2814867E-3,4.9746145E-2,-2.8393392E-2,3.8621243E-2,7.701489E-2,1.4967516E-2,3.715428E-2,2.273545E-3,5.9509285E-2,4.63814E-2,2.9325042E-2,-8.8423185E-2,-4.538048E-2,6.707165E-3,6.313113E-2,4.1301284E-2,1.1492677E-2,1.4323965E-1,-7.953922E-3,3.5067836E-3,6.0466785E-2,1.0064008E-1,-4.6301093E-2,4.972869E-2,-4.586764E-2,-1.394776E-2,-2.5287492E-2,-4.7965784E-2,-1.212705E-2,5.072285E-2,-3.5884246E-2,4.744105E-2,-4.283755E-3,5.6927703E-2,2.2379464E-2,4.1726273E-2,4.612831E-2,4.3632682E-2,-7.080837E-2,3.4013714E-3,5.3620417E-2,5.0143674E-2,-3.3085506E-2,3.4081988E-2,-1.6035677E-3,9.127267E-2,4.8011594E-2,1.630243E-2,-7.8577615E-2,4.0685084E-1,-1.8058155E-1,-3.7131763E-1,3.053271E-1,4.653533E-1,2.1178316E-2,-3.7753266E-1,8.685008E-2,-3.4739935E-1,-1.2666205E-1,3.1252983E-1,-2.1575461E-1,-2.081984E-1,1.9049373E-1,-2.172455E-1,3.8768163E-1,4.6467367E-3,3.4030774E-1,1.570977E-1,-3.372799E-1,3.9452422E-2,-3.1725934E-1,-2.6296797E-1,2.0944424E-1,3.1383595E-1,-3.0132335E-1,3.556213E-1,-2.5844577E-1,3.7317482E-1,9.499492E-3,2.2621486E-1,-2.5792557E-1,3.4769326E-1,1.7341031E-1,-4.9667664E-2,2.476039E-1,2.3816548E-1,-9.329148E-2,-1.8472283E-1,1.6612622E-1,4.5083016E-2,-3.0045936E-1,1.1529571E-1,4.1748518E-1,1.6430211E-1,-3.9592215E-1,-4.402432E-1,9.348629E-2,-1.7109567E-1,1.0151162E-1,-3.374894E-2,2.878107E-1,-6.8628035E-2,-2.984391E-1,3.3359593E-1,2.5210364E-2,-3.257904E-1,1.2548923E-2,-1.6937952E-1,1.7416212E-1,-2.900529E-1,3.1167966E-1,-1.4968726E-1,2.4228203E-1],"split_indices":[90,24,127,245,14,319,73,104,77,173,46,309,99,59,239,37,37,93,297,332,297,92,174,324,5,222,69,152,109,109,109,240,35,150,328,109,238,0,292,0,57,31,211,324,37,104,173,164,152,137,344,37,75,273,144,304,2,123,6,90,90,225,98,0,0,0,0,0,0,0,0,0,0,0,0,0,0,0,0,0,0,0,0,0,0,0,0,0,0,0,0,0,0,0,0,0,0,0,0,0,0,0,0,0,0,0,0,0,0,0,0,0,0,0,0,0,0,0,0,0,0,0,0,0,0,0,0],"split_type":[0,0,0,0,0,0,0,0,0,0,0,0,0,0,0,0,0,0,0,0,0,0,0,0,0,0,0,0,0,0,0,0,0,0,0,0,0,0,0,0,0,0,0,0,0,0,0,0,0,0,0,0,0,0,0,0,0,0,0,0,0,0,0,0,0,0,0,0,0,0,0,0,0,0,0,0,0,0,0,0,0,0,0,0,0,0,0,0,0,0,0,0,0,0,0,0,0,0,0,0,0,0,0,0,0,0,0,0,0,0,0,0,0,0,0,0,0,0,0,0,0,0,0,0,0,0,0],"sum_hessian":[7.1814683E3,2.1252178E3,5.0562505E3,1.4918973E3,6.333203E2,2.2697295E3,2.786521E3,5.95896E1,1.4323077E3,3.647974E2,2.6852292E2,2.183928E3,8.580171E1,1.6277842E3,1.1587369E3,3.9476223E1,2.0113377E1,1.2398599E3,1.9244797E2,8.136361E1,2.8343378E2,8.637786E1,1.8214505E2,1.4710894E3,7.128385E2,1.1961223E1,7.384049E1,1.0591442E3,5.686401E2,9.8660547E2,1.7213148E2,3.4419315E1,5.0569067E0,2.7823415E0,1.7331036E1,1.1447655E3,9.509429E1,1.7431146E2,1.8136505E1,6.1420845E1,1.9942768E1,2.2224548E2,6.1188305E1,2.5543669E1,6.0834194E1,1.4853331E2,3.361175E1,1.2095919E3,2.614974E2,4.949353E2,2.1790318E2,2.2719536E0,9.689269E0,1.693991E1,5.690058E1,3.0536526E2,7.537789E2,4.1839685E2,1.5024318E2,5.761176E2,4.1048782E2,5.0426777E1,1.21704704E2,3.2997482E1,1.4218329E0,3.2759397E0,1.7809671E0,1.7626177E0,1.0197239E0,1.5531442E1,1.7995933E0,1.0960022E3,4.8763344E1,1.1499692E1,8.35946E1,1.5731088E2,1.7000572E1,2.9122894E0,1.52242155E1,2.4958437E1,3.646241E1,5.191685E0,1.4751082E1,2.0394077E1,2.018514E2,2.8376802E1,3.28115E1,2.0953396E1,4.5902734E0,6.205269E0,5.4628925E1,1.343062E2,1.4227099E1,1.4042319E1,1.9569433E1,1.0924614E3,1.1713056E2,9.996189E1,1.6153552E2,4.317937E2,6.314158E1,1.4865355E2,6.924964E1,1.0030656E0,1.2688879E0,1.0747488E0,8.61452E0,1.06183605E1,6.32155E0,5.4305737E1,2.594844E0,1.3082658E2,1.7453867E2,8.561238E1,6.681665E2,2.0895065E2,2.094462E2,5.1050285E1,9.9192894E1,5.5348517E2,2.2632431E1,3.187741E2,9.171371E1,3.7080048E1,1.334673E1,1.8160213E1,1.0354449E2],"tree_param":{"num_deleted":"0","num_feature":"384","num_nodes":"127","size_leaf_vector":"1"}},{"base_weights":[-5.240644E-3,4.2168504E-1,-3.7039766E-1,-3.242482E-2,7.3405236E-1,-7.670438E-3,-7.721878E-1,2.3025116E-1,-7.606718E-1,3.5961485E-1,9.463718E-1,-4.929182E-1,3.0812347E-1,2.396193E-1,-8.881458E-1,-3.022659E-1,4.85426E-1,-9.468858E-2,-9.3580073E-1,-1.2968467E-1,7.447857E-1,6.08198E-1,1.0513477E0,3.9404085E-1,-6.29311E-1,-4.374933E-1,5.34511E-1,-3.8338253E-1,7.8284484E-1,-1.5142876E-1,-9.815388E-1,-4.4735813E-1,9.358631E-1,-2.0336356E-2,7.744223E-1,-6.051347E-1,7.0487803E-1,-1.0577357E0,-3.2122695E-1,-5.4697365E-1,3.1157362E-1,1.1365846E0,4.3433598E-1,5.4214902E-2,8.574443E-1,2.0551753E-1,1.078808E0,-3.0832353E-1,8.6367047E-1,-1.4931957E-1,-8.6820775E-1,3.815951E-1,-7.094511E-1,7.2448534E-1,-3.834758E-2,4.9302536E-1,-9.067677E-1,1.1099762E0,1.8218175E-1,4.562308E-1,-7.4073786E-1,-2.533172E-1,-1.0437797E0,-2.1482806E-1,4.5078512E-2,3.309037E-1,-3.0618507E-1,8.638638E-2,-2.1896134E-1,3.006515E-1,1.2092665E-1,4.51829E-1,-2.2433671E-1,-4.7458574E-2,4.2543292E-1,-3.400087E-1,-7.356285E-2,4.25404E-2,-3.4958738E-1,-3.3782968E-1,-2.9498614E-2,3.2181817E-1,2.0628557E-2,3.6853048E-1,-1.1666313E-2,2.4800627E-1,-5.7173602E-2,-2.6064104E-1,1.2837301E-1,2.8517026E-1,-1.9567116E-1,2.3652825E-1,-2.2666287E-1,4.831135E-2,3.293535E-1,1.5084465E-1,-2.686619E-1,-1.25106E-1,3.1255138E-1,-1.7254946E-1,8.0432326E-2,-4.495077E-2,-2.9879326E-1,2.6228186E-1,-1.2766951E-1,-1.2659084E-2,-2.8277358E-1,7.312408E-2,2.812601E-1,-2.216885E-1,6.794735E-2,-9.369432E-2,3.2519078E-1,-3.3128366E-1,8.268865E-2,-1.23562425E-1,3.6618832E-1,3.1522804E-1,-1.5096982E-1,3.171338E-1,-1.0983243E-1,8.9084014E-2,-2.909107E-1,-2.0878626E-1,1.3318254E-1,-3.372131E-1,-2.2844793E-1],"categories":[],"categories_nodes":[],"categories_segments":[],"categories_sizes":[],"default_left":[0,0,0,0,0,0,0,0,0,0,0,0,0,0,0,0,0,0,0,0,0,0,0,0,0,0,0,0,0,0,0,0,0,0,0,0,0,0,0,0,0,0,0,0,0,0,0,0,0,0,0,0,0,0,0,0,0,0,0,0,0,0,0,0,0,0,0,0,0,0,0,0,0,0,0,0,0,0,0,0,0,0,0,0,0,0,0,0,0,0,0,0,0,0,0,0,0,0,0,0,0,0,0,0,0,0,0,0,0,0,0,0,0,0,0,0,0,0,0,0,0,0,0,0,0,0,0],"id":4,"left_children":[1,3,5,7,9,11,13,15,17,19,21,23,25,27,29,31,33,35,37,39,41,43,45,47,49,51,53,55,57,59,61,63,65,67,69,71,73,75,77,79,81,83,85,87,89,91,93,95,97,99,101,103,105,107,109,111,113,115,117,119,121,123,125,-1,-1,-1,-1,-1,-1,-1,-1,-1,-1,-1,-1,-1,-1,-1,-1,-1,-1,-1,-1,-1,-1,-1,-1,-1,-1,-1,-1,-1,-1,-1,-1,-1,-1,-1,-1,-1,-1,-1,-1,-1,-1,-1,-1,-1,-1,-1,-1,-1,-1,-1,-1,-1,-1,-1,-1,-1,-1,-1,-1,-1,-1,-1,-1],"loss_changes":[1.0182889E3,4.27169E2,5.1309094E2,2.3511314E2,1.4149689E2,2.838367E2,1.9619135E2,1.2290016E2,3.7909836E1,1.220698E2,3.975647E1,8.858473E1,1.8963547E2,5.8691483E1,1.0297681E2,5.310128E1,8.93362E1,2.8566181E1,1.8982864E1,5.281697E1,4.3571793E1,3.7500793E1,1.9915466E1,3.2571037E1,7.2486435E1,5.8607845E1,9.374777E1,3.7619076E1,1.7973213E1,6.1146862E1,6.00188E1,4.237439E1,1.1291325E1,4.9030846E1,3.2486725E1,1.39622965E1,1.7046064E1,1.2916534E1,1.7410429E1,3.8164276E1,2.5727518E1,1.7272644E1,5.0112186E1,2.9845137E1,2.6977036E1,1.656018E1,1.4490295E1,1.9493982E1,1.3886887E1,3.777741E1,3.8641235E1,2.6589993E1,3.0597992E1,6.6012726E1,4.0137424E1,1.506703E1,1.2235718E1,1.0553841E1,2.065721E1,4.2003654E1,2.0860607E1,3.303811E1,2.689856E1,0E0,0E0,0E0,0E0,0E0,0E0,0E0,0E0,0E0,0E0,0E0,0E0,0E0,0E0,0E0,0E0,0E0,0E0,0E0,0E0,0E0,0E0,0E0,0E0,0E0,0E0,0E0,0E0,0E0,0E0,0E0,0E0,0E0,0E0,0E0,0E0,0E0,0E0,0E0,0E0,0E0,0E0,0E0,0E0,0E0,0E0,0E0,0E0,0E0,0E0,0E0,0E0,0E0,0E0,0E0,0E0,0E0,0E0,0E0,0E0,0E0,0E0,0E0,0E0],"parents":[2147483647,0,0,1,1,2,2,3,3,4,4,5,5,6,6,7,7,8,8,9,9,10,10,11,11,12,12,13,13,14,14,15,15,16,16,17,17,18,18,19,19,20,20,21,21,22,22,23,23,24,24,25,25,26,26,27,27,28,28,29,29,30,30,31,31,32,32,33,33,34,34,35,35,36,36,37,37,38,38,39,39,40,40,41,41,42,42,43,43,44,44,45,45,46,46,47,47,48,48,49,49,50,50,51,51,52,52,53,53,54,54,55,55,56,56,57,57,58,58,59,59,60,60,61,61,62,62],"right_children":[2,4,6,8,10,12,14,16,18,20,22,24,26,28,30,32,34,36,38,40,42,44,46,48,50,52,54,56,58,60,62,64,66,68,70,72,74,76,78,80,82,84,86,88,90,92,94,96,98,100,102,104,106,108,110,112,114,116,118,120,122,124,126,-1,-1,-1,-1,-1,-1,-1,-1,-1,-1,-1,-1,-1,-1,-1,-1,-1,-1,-1,-1,-1,-1,-1,-1,-1,-1,-1,-1,-1,-1,-1,-1,-1,-1,-1,-1,-1,-1,-1,-1,-1,-1,-1,-1,-1,-1,-1,-1,-1,-1,-1,-1,-1,-1,-1,-1,-1,-1,-1,-1,-1,-1,-1,-1],"split_conditions":[-7.475726E-3,1.1127975E-2,3.0752134E-2,2.6833652E-2,-3.856731E-2,-3.9999343E-2,-1.3099259E-2,-3.457414E-2,-4.159748E-2,-2.5492601E-2,1.4612109E-2,-3.3067375E-2,-3.132032E-2,-1.1688205E-2,-2.3521017E-2,3.523362E-2,-2.799737E-2,3.9047107E-2,2.088984E-2,-2.1869761E-3,-5.7899326E-2,-5.2347377E-2,-5.447454E-2,-3.999606E-2,1.5751371E-2,-1.313951E-2,3.419124E-2,-1.5881944E-2,1.8545024E-3,-1.7074052E-2,2.1196076E-5,3.3903993E-3,7.051051E-2,4.5274414E-2,2.317988E-32,-6.4253464E-2,-2.5122562E-2,4.6254814E-2,-4.756711E-3,-5.9444316E-2,-2.8028674E-3,8.8732734E-2,2.2079675E-2,6.0059205E-3,7.663778E-2,2.893064E-2,-1.0258206E-1,8.396923E-3,-4.4219524E-2,-1.9009177E-2,-7.290462E-2,-6.0432185E-3,-4.152985E-2,-7.1756385E-2,-5.2896433E-2,-1.8830728E-2,3.8630378E-2,-5.693149E-2,2.6371907E-2,3.7313238E-2,9.491987E-3,3.3498768E-2,5.9252176E-3,-2.1482806E-1,4.5078512E-2,3.309037E-1,-3.0618507E-1,8.638638E-2,-2.1896134E-1,3.006515E-1,1.2092665E-1,4.51829E-1,-2.2433671E-1,-4.7458574E-2,4.2543292E-1,-3.400087E-1,-7.356285E-2,4.25404E-2,-3.4958738E-1,-3.3782968E-1,-2.9498614E-2,3.2181817E-1,2.0628557E-2,3.6853048E-1,-1.1666313E-2,2.4800627E-1,-5.7173602E-2,-2.6064104E-1,1.2837301E-1,2.8517026E-1,-1.9567116E-1,2.3652825E-1,-2.2666287E-1,4.831135E-2,3.293535E-1,1.5084465E-1,-2.686619E-1,-1.25106E-1,3.1255138E-1,-1.7254946E-1,8.0432326E-2,-4.495077E-2,-2.9879326E-1,2.6228186E-1,-1.2766951E-1,-1.2659084E-2,-2.8277358E-1,7.312408E-2,2.812601E-1,-2.216885E-1,6.794735E-2,-9.369432E-2,3.2519078E-1,-3.3128366E-1,8.268865E-2,-1.23562425E-1,3.6618832E-1,3.1522804E-1,-1.5096982E-1,3.171338E-1,-1.0983243E-1,8.9084014E-2,-2.909107E-1,-2.0878626E-1,1.3318254E-1,-3.372131E-1,-2.2844793E-1],"split_indices":[48,292,227,173,239,24,123,242,116,305,152,110,297,24,92,239,221,77,44,297,332,289,221,270,99,5,5,173,349,233,313,258,37,5,127,312,230,258,307,289,37,243,123,109,349,5,24,16,100,46,67,227,67,41,296,0,90,14,133,48,48,297,49,0,0,0,0,0,0,0,0,0,0,0,0,0,0,0,0,0,0,0,0,0,0,0,0,0,0,0,0,0,0,0,0,0,0,0,0,0,0,0,0,0,0,0,0,0,0,0,0,0,0,0,0,0,0,0,0,0,0,0,0,0,0,0,0],"split_type":[0,0,0,0,0,0,0,0,0,0,0,0,0,0,0,0,0,0,0,0,0,0,0,0,0,0,0,0,0,0,0,0,0,0,0,0,0,0,0,0,0,0,0,0,0,0,0,0,0,0,0,0,0,0,0,0,0,0,0,0,0,0,0,0,0,0,0,0,0,0,0,0,0,0,0,0,0,0,0,0,0,0,0,0,0,0,0,0,0,0,0,0,0,0,0,0,0,0,0,0,0,0,0,0,0,0,0,0,0,0,0,0,0,0,0,0,0,0,0,0,0,0,0,0,0,0,0],"sum_hessian":[6.5298916E3,3.0102654E3,3.519626E3,1.227158E3,1.7831075E3,1.850266E3,1.66936E3,9.023628E2,3.247951E2,6.4619653E2,1.1369109E3,7.292075E2,1.1210585E3,1.7153574E2,1.4978242E3,2.92263E2,6.100998E2,6.794676E1,2.5684833E2,2.849171E2,3.6127945E2,2.7092746E2,8.659835E2,9.693736E1,6.3227014E2,2.6088626E2,8.601722E2,8.003793E1,9.1497795E1,1.688102E2,1.329014E3,2.6217792E2,3.0085077E1,2.2218724E2,3.8791257E2,4.1619743E1,2.632702E1,2.1372331E2,4.3125023E1,1.4631265E2,1.3860446E2,1.5853783E2,2.0274164E2,8.444802E1,1.8647943E2,2.749725E1,8.3848627E2,3.8981396E1,5.7955967E1,2.1065234E2,4.216178E2,6.4928894E1,1.9595738E2,6.4575793E2,2.1441426E2,2.9948019E1,5.0089916E1,5.8687603E1,3.281019E1,8.322228E1,8.558791E1,1.0504565E2,1.2239684E3,1.80716E2,8.1461914E1,2.8118994E1,1.9660833E0,1.5530276E2,6.6884476E1,2.3938939E2,1.485232E2,2.0292926E0,3.959045E1,1.2264316E1,1.4062705E1,1.9516344E2,1.8559877E1,2.838556E1,1.4739463E1,6.320963E1,8.310302E1,3.269523E1,1.0590923E2,1.4700587E2,1.1531951E1,1.2434744E2,7.839419E1,2.395495E1,6.049307E1,1.7599379E2,1.0485647E1,1.722776E1,1.0269489E1,1.7231201E1,8.2125507E2,1.6429949E1,2.2551447E1,6.914324E0,5.104164E1,1.0408769E2,1.06564644E2,6.399352E1,3.576243E2,4.0267254E1,2.4661644E1,5.1043217E1,1.4491417E2,1.9895801E2,4.4679993E2,5.832608E1,1.5608818E2,1.287434E1,1.707368E1,4.2976982E1,7.1129355E0,3.7933443E0,5.489426E1,1.4236381E1,1.8573809E1,4.792099E1,3.5301296E1,1.5417532E1,7.017039E1,6.425615E1,4.0789497E1,9.5067615E2,2.732923E2],"tree_param":{"num_deleted":"0","num_feature":"384","num_nodes":"127","size_leaf_vector":"1"}},{"base_weights":[-4.913327E-3,5.073808E-1,-2.3653047E-1,1.5317419E-1,7.2532445E-1,2.7962795E-1,-4.6294785E-1,4.6807605E-1,-4.5159388E-1,4.961108E-1,9.735807E-1,-2.760965E-1,5.595665E-1,-2.6506335E-2,-6.8910456E-1,-1.4635871E-1,7.3075944E-1,-8.3551145E-1,-1.7689063E-3,7.2418E-1,-8.9272715E-2,1.1938795E0,7.7753377E-1,-6.4498574E-1,9.948476E-2,1.9342662E-1,8.862593E-1,-4.4282252E-1,3.268598E-1,-9.0083265E-1,-3.8860118E-1,5.6774795E-1,-5.280588E-1,8.0357826E-1,-8.3562136E-1,-9.6916324E-1,2.0782769E-1,5.6331944E-1,-3.6538836E-1,4.09332E-1,9.6438533E-1,1.462887E-1,-9.7518295E-1,1.2204788E0,3.265107E-1,9.812737E-1,3.7065992E-1,-8.45989E-1,-3.0101081E-2,-4.5858356E-1,4.4304764E-1,-2.2209187E-1,5.124146E-1,-1.0886429E-1,9.5664984E-1,-6.553195E-1,2.1515927E-1,7.404901E-1,-1.18578084E-1,-1.0099908E0,-5.137219E-1,3.3188966E-1,-6.1822087E-1,-1.5326914E-1,2.7257702E-1,-3.3201635E-1,-1.33999735E-2,6.2005874E-2,2.81697E-1,2.1631294E-1,-3.3613044E-1,-5.9214573E-2,-3.371441E-1,2.8681976E-1,-2.5258836E-1,2.830013E-1,-1.1243599E-1,-2.4524401E-1,9.3332104E-2,1.7560527E-1,-1.3865986E-1,3.11062E-1,8.408358E-3,-1.1387221E-1,1.7013465E-1,1.8281515E-1,-4.0117183E-1,3.694712E-1,-1.1963369E-1,-3.2459968E-1,3.018584E-1,3.086637E-1,-8.39605E-2,3.2684404E-1,4.655528E-3,-3.1671017E-1,-1.23471305E-1,2.4764946E-1,-1.6009E-1,9.5428236E-2,-2.4911314E-1,-6.7326166E-2,2.3632151E-1,5.888062E-2,-2.0050241E-1,2.4446866E-1,-3.1327397E-2,1.4619893E-1,-2.891268E-1,3.5241032E-1,2.113141E-1,-5.072126E-2,-2.6501858E-1,-1.5620938E-1,1.7992692E-1,3.0036032E-1,7.922101E-2,-1.1912711E-1,1.8616447E-1,-1.7513707E-1,-3.262637E-1,-2.838827E-1,-3.065855E-2,2.0037821E-1,-9.312639E-2,-2.512277E-1,-4.6569735E-2],"categories":[],"categories_nodes":[],"categories_segments":[],"categories_sizes":[],"default_left":[0,0,0,0,0,0,0,0,0,0,0,0,0,0,0,0,0,0,0,0,0,0,0,0,0,0,0,0,0,0,0,0,0,0,0,0,0,0,0,0,0,0,0,0,0,0,0,0,0,0,0,0,0,0,0,0,0,0,0,0,0,0,0,0,0,0,0,0,0,0,0,0,0,0,0,0,0,0,0,0,0,0,0,0,0,0,0,0,0,0,0,0,0,0,0,0,0,0,0,0,0,0,0,0,0,0,0,0,0,0,0,0,0,0,0,0,0,0,0,0,0,0,0,0,0,0,0],"id":5,"left_children":[1,3,5,7,9,11,13,15,17,19,21,23,25,27,29,31,33,35,37,39,41,43,45,47,49,51,53,55,57,59,61,63,65,67,69,71,73,75,77,79,81,83,85,87,89,91,93,95,97,99,101,103,105,107,109,111,113,115,117,119,121,123,125,-1,-1,-1,-1,-1,-1,-1,-1,-1,-1,-1,-1,-1,-1,-1,-1,-1,-1,-1,-1,-1,-1,-1,-1,-1,-1,-1,-1,-1,-1,-1,-1,-1,-1,-1,-1,-1,-1,-1,-1,-1,-1,-1,-1,-1,-1,-1,-1,-1,-1,-1,-1,-1,-1,-1,-1,-1,-1,-1,-1,-1,-1,-1,-1],"loss_changes":[7.0600684E2,1.4290009E2,4.789892E2,1.348429E2,6.476312E1,1.9461142E2,2.8113995E2,7.521845E1,4.1889416E1,7.993002E1,2.2799622E1,5.817092E1,9.929782E1,1.4332628E2,1.19023865E2,3.8515903E1,3.7874557E1,1.8450584E1,2.336306E1,3.217047E1,3.5329372E1,5.526947E0,2.3972076E1,2.614154E1,4.021383E1,5.2256367E1,3.0867615E1,6.2677185E1,9.718895E1,4.5960083E1,1.2879755E2,1.8596184E1,2.565279E1,2.5038727E1,7.4492216E0,1.3645767E1,1.3124859E1,1.6224487E1,2.141241E1,2.9123556E1,1.6499329E1,2.9883247E1,2.1208035E1,4.9601746E0,9.711481E0,1.1995621E1,2.5399117E1,1.4098335E1,2.3358498E1,2.3367626E1,3.0010498E1,3.215732E1,4.1664875E1,1.5714894E1,2.1740631E1,3.737172E1,3.1425373E1,3.3694473E1,5.2660175E1,2.7690918E1,4.3332375E1,4.0893585E1,5.9726242E1,0E0,0E0,0E0,0E0,0E0,0E0,0E0,0E0,0E0,0E0,0E0,0E0,0E0,0E0,0E0,0E0,0E0,0E0,0E0,0E0,0E0,0E0,0E0,0E0,0E0,0E0,0E0,0E0,0E0,0E0,0E0,0E0,0E0,0E0,0E0,0E0,0E0,0E0,0E0,0E0,0E0,0E0,0E0,0E0,0E0,0E0,0E0,0E0,0E0,0E0,0E0,0E0,0E0,0E0,0E0,0E0,0E0,0E0,0E0,0E0,0E0,0E0,0E0,0E0],"parents":[2147483647,0,0,1,1,2,2,3,3,4,4,5,5,6,6,7,7,8,8,9,9,10,10,11,11,12,12,13,13,14,14,15,15,16,16,17,17,18,18,19,19,20,20,21,21,22,22,23,23,24,24,25,25,26,26,27,27,28,28,29,29,30,30,31,31,32,32,33,33,34,34,35,35,36,36,37,37,38,38,39,39,40,40,41,41,42,42,43,43,44,44,45,45,46,46,47,47,48,48,49,49,50,50,51,51,52,52,53,53,54,54,55,55,56,56,57,57,58,58,59,59,60,60,61,61,62,62],"right_children":[2,4,6,8,10,12,14,16,18,20,22,24,26,28,30,32,34,36,38,40,42,44,46,48,50,52,54,56,58,60,62,64,66,68,70,72,74,76,78,80,82,84,86,88,90,92,94,96,98,100,102,104,106,108,110,112,114,116,118,120,122,124,126,-1,-1,-1,-1,-1,-1,-1,-1,-1,-1,-1,-1,-1,-1,-1,-1,-1,-1,-1,-1,-1,-1,-1,-1,-1,-1,-1,-1,-1,-1,-1,-1,-1,-1,-1,-1,-1,-1,-1,-1,-1,-1,-1,-1,-1,-1,-1,-1,-1,-1,-1,-1,-1,-1,-1,-1,-1,-1,-1,-1,-1,-1,-1,-1],"split_conditions":[-1.4514733E-2,1.30278235E-2,6.396373E-3,3.3256315E-2,4.1951635E-3,-7.049497E-2,-6.1224557E-2,-6.486049E-2,2.8268958E-2,3.094408E-2,9.879704E-3,1.8668322E-2,3.0258844E-2,-5.2868366E-2,3.7116485E-3,3.2820657E-2,-8.042526E-33,4.465903E-2,-2.8447019E-2,-6.396432E-2,6.8276346E-2,1.31926E-1,2.2623016E-2,2.438572E-2,-9.692463E-3,-4.393181E-2,-5.12271E-2,7.449592E-2,1.2405095E-2,4.5225117E-2,1.3991815E-2,-3.5407517E-2,2.0590017E-2,-1.6520072E-2,3.9164484E-3,-7.807386E-2,4.829726E-2,4.0457334E-2,2.190078E-2,3.3935823E-2,1.9222207E-2,8.266512E-3,-1.7324066E-2,6.7100056E-2,-5.8742482E-2,6.25715E-2,-1.7438248E-2,3.3431806E-2,1.1439121E-2,-8.5748726E-4,-2.7787939E-2,1.2153081E-2,4.0722255E-2,2.0826034E-2,7.1235546E-3,-5.828123E-3,-1.2773455E-3,1.0135375E-2,4.7761947E-2,-6.866554E-2,-4.6996586E-2,4.8252527E-2,5.4617293E-2,-1.5326914E-1,2.7257702E-1,-3.3201635E-1,-1.33999735E-2,6.2005874E-2,2.81697E-1,2.1631294E-1,-3.3613044E-1,-5.9214573E-2,-3.371441E-1,2.8681976E-1,-2.5258836E-1,2.830013E-1,-1.1243599E-1,-2.4524401E-1,9.3332104E-2,1.7560527E-1,-1.3865986E-1,3.11062E-1,8.408358E-3,-1.1387221E-1,1.7013465E-1,1.8281515E-1,-4.0117183E-1,3.694712E-1,-1.1963369E-1,-3.2459968E-1,3.018584E-1,3.086637E-1,-8.39605E-2,3.2684404E-1,4.655528E-3,-3.1671017E-1,-1.23471305E-1,2.4764946E-1,-1.6009E-1,9.5428236E-2,-2.4911314E-1,-6.7326166E-2,2.3632151E-1,5.888062E-2,-2.0050241E-1,2.4446866E-1,-3.1327397E-2,1.4619893E-1,-2.891268E-1,3.5241032E-1,2.113141E-1,-5.072126E-2,-2.6501858E-1,-1.5620938E-1,1.7992692E-1,3.0036032E-1,7.922101E-2,-1.1912711E-1,1.8616447E-1,-1.7513707E-1,-3.262637E-1,-2.838827E-1,-3.065855E-2,2.0037821E-1,-9.312639E-2,-2.512277E-1,-4.6569735E-2],"split_indices":[104,344,123,37,46,41,342,270,320,5,240,344,344,338,297,309,223,61,321,41,114,309,5,46,297,289,292,109,73,344,37,182,52,221,99,332,114,123,90,48,273,383,31,79,280,173,349,80,174,174,265,114,37,203,294,73,63,376,320,332,24,99,77,0,0,0,0,0,0,0,0,0,0,0,0,0,0,0,0,0,0,0,0,0,0,0,0,0,0,0,0,0,0,0,0,0,0,0,0,0,0,0,0,0,0,0,0,0,0,0,0,0,0,0,0,0,0,0,0,0,0,0,0,0,0,0,0],"split_type":[0,0,0,0,0,0,0,0,0,0,0,0,0,0,0,0,0,0,0,0,0,0,0,0,0,0,0,0,0,0,0,0,0,0,0,0,0,0,0,0,0,0,0,0,0,0,0,0,0,0,0,0,0,0,0,0,0,0,0,0,0,0,0,0,0,0,0,0,0,0,0,0,0,0,0,0,0,0,0,0,0,0,0,0,0,0,0,0,0,0,0,0,0,0,0,0,0,0,0,0,0,0,0,0,0,0,0,0,0,0,0,0,0,0,0,0,0,0,0,0,0,0,0,0,0,0,0],"sum_hessian":[5.948014E3,1.8515464E3,4.096468E3,7.059402E2,1.1456062E3,1.2489746E3,2.8474932E3,4.6436963E2,2.4157056E2,5.9720685E2,5.4839935E2,4.1839835E2,8.3057623E2,9.7228217E2,1.875211E3,1.3920418E2,3.2516544E2,1.2987076E2,1.116998E2,4.2959625E2,1.6761058E2,2.5583105E2,2.9256833E2,2.1071776E2,2.0768057E2,3.9239404E2,4.3818222E2,4.4626483E2,5.2601733E2,1.0989308E3,7.762802E2,4.8318924E1,9.0885254E1,3.1118585E2,1.3979602E1,1.1518647E2,1.4684294E1,4.3519093E1,6.818071E1,1.8708267E2,2.4251358E2,1.3306404E2,3.4546535E1,2.4782405E2,8.007007E0,1.9400807E2,9.856025E1,1.5852179E2,5.219597E1,7.900826E1,1.286723E2,1.7054427E2,2.2184978E2,2.891129E1,4.0927094E2,3.373279E2,1.0893691E2,2.7240332E2,2.5361403E2,8.5595746E2,2.4297337E2,1.875013E2,5.8877893E2,1.1482365E1,3.683656E1,4.0779354E1,5.01059E1,5.8009136E1,2.531767E2,1.9252733E0,1.2054328E1,1.9608208E1,9.5578255E1,8.625639E0,6.0586553E0,3.0968472E1,1.2550622E1,4.074382E1,2.7436888E1,1.5592055E2,3.116213E1,2.2498875E2,1.7524828E1,5.919382E1,7.3870224E1,6.298327E0,2.8248209E1,2.463758E2,1.4482511E0,2.41353E0,5.593477E0,1.8712857E2,6.879503E0,3.1908491E1,6.665176E1,1.0594676E2,5.2575035E1,1.9100718E1,3.309525E1,2.5624031E1,5.338423E1,4.393818E1,8.473413E1,8.83118E1,8.223246E1,1.4863982E2,7.320995E1,1.728608E1,1.1625209E1,2.1756255E2,1.9170839E2,1.0826096E2,2.2906694E2,3.7271236E1,7.166567E1,1.7534686E2,9.705646E1,1.8453983E2,6.907421E1,1.3309035E2,7.228671E2,1.17826775E2,1.2514659E2,1.2307323E2,6.442807E1,3.990415E2,1.8973743E2],"tree_param":{"num_deleted":"0","num_feature":"384","num_nodes":"127","size_leaf_vector":"1"}},{"base_weights":[-3.7711156E-3,2.2268862E-1,-4.324769E-1,4.354363E-1,-1.8260941E-1,-5.8075655E-1,3.0947283E-1,7.5781095E-1,1.6804996E-1,-4.8331267E-1,2.623008E-1,-6.878501E-2,-7.66312E-1,5.521183E-1,-5.961458E-1,8.909592E-1,3.153074E-1,4.344541E-1,-1.9093807E-1,1.3365035E-2,-7.059488E-1,5.478623E-1,-3.3321774E-1,2.0516008E-1,-6.680598E-1,-8.376448E-1,2.7330017E-1,-5.1502254E-2,8.705371E-1,1.1260474E0,-7.4706644E-1,6.86702E-1,1.0535727E0,-6.546706E-1,5.637963E-1,-2.8362036E-1,5.957505E-1,1.924675E-1,-5.561623E-1,6.138556E-1,-3.614798E-1,-8.777901E-1,-3.030938E-1,-2.6162162E-2,8.055024E-1,7.382183E-1,-5.3610605E-1,-3.350065E-1,4.9789777E-1,-8.735798E-1,6.975055E-2,-9.077971E-1,-1.6640855E-1,-6.460738E-1,7.69552E-1,3.4053683E-1,-7.072904E-1,1.0413066E0,2.2206506E-1,4.1524217E-1,-1.36012705E-2,-9.564752E-1,4.7135523E-1,2.6313427E-1,9.952389E-2,1.3025229E-1,3.271674E-1,-2.6027858E-1,1.3595338E-1,-2.6970653E-2,2.2710828E-1,1.1106507E-1,-2.1847278E-1,-9.384156E-2,2.015074E-1,1.0449118E-1,-2.1420214E-1,-1.9559337E-1,2.1206641E-1,-7.8164026E-2,2.9106012E-1,-2.7311364E-1,-6.507457E-3,-2.9079312E-1,-7.407506E-2,-2.6461816E-1,1.916947E-3,8.912604E-2,-2.703796E-1,4.6866883E-2,2.7683184E-1,2.9133457E-1,-2.4206336E-1,-3.3282107E-1,-5.288784E-2,9.90018E-2,-1.9173254E-1,2.1325956E-1,-8.384401E-2,-4.2726282E-2,-3.083188E-1,1.639308E-1,-2.9010558E-1,-2.1562617E-1,-3.182515E-1,-1.3780841E-1,2.215108E-1,2.1796261E-1,-3.1812277E-1,2.8338623E-1,-2.600274E-1,2.508514E-1,-4.4239875E-2,-3.171515E-1,9.2334226E-2,3.4079495E-1,1.18068345E-2,2.7563408E-1,-1.4589645E-1,1.466528E-1,-3.2345662E-1,3.1118613E-1,-1.7678592E-1],"categories":[],"categories_nodes":[],"categories_segments":[],"categories_sizes":[],"default_left":[0,0,0,0,0,0,0,0,0,0,0,0,0,0,0,0,0,0,0,0,0,0,0,0,0,0,0,0,0,0,0,0,0,0,0,0,0,0,0,0,0,0,0,0,0,0,0,0,0,0,0,0,0,0,0,0,0,0,0,0,0,0,0,0,0,0,0,0,0,0,0,0,0,0,0,0,0,0,0,0,0,0,0,0,0,0,0,0,0,0,0,0,0,0,0,0,0,0,0,0,0,0,0,0,0,0,0,0,0,0,0,0,0,0,0,0,0,0,0,0,0,0,0],"id":6,"left_children":[1,3,5,7,9,11,13,15,17,19,21,23,25,27,29,31,33,35,37,39,41,43,45,47,49,51,53,55,57,59,61,63,65,67,69,71,73,75,77,79,81,83,85,87,89,91,93,95,97,99,101,103,105,107,109,111,113,115,117,-1,-1,119,121,-1,-1,-1,-1,-1,-1,-1,-1,-1,-1,-1,-1,-1,-1,-1,-1,-1,-1,-1,-1,-1,-1,-1,-1,-1,-1,-1,-1,-1,-1,-1,-1,-1,-1,-1,-1,-1,-1,-1,-1,-1,-1,-1,-1,-1,-1,-1,-1,-1,-1,-1,-1,-1,-1,-1,-1,-1,-1,-1,-1],"loss_changes":[5.27609E2,3.0670688E2,2.0684E2,2.0091168E2,1.6398799E2,1.4870856E2,6.9226524E1,6.2003418E1,1.2212901E2,8.086383E1,8.4293884E1,6.870423E1,8.5456055E1,4.767283E1,1.8186726E1,2.6249207E1,5.967684E1,8.5048965E1,7.632617E1,5.13839E1,3.4686707E1,4.951758E1,3.5378075E1,4.5612534E1,1.9965076E1,5.050287E1,3.4508514E1,2.2484564E1,1.7739456E1,1.8089428E0,1.6259697E1,2.4230927E1,9.8411255E0,1.2339333E1,2.487854E1,3.954386E1,4.152144E1,3.7865013E1,3.4228035E1,2.7587067E1,2.6197771E1,2.0165283E1,2.7330471E1,2.9870401E1,1.7446884E1,1.01547575E1,2.7834476E1,2.0759493E1,3.1123043E1,1.1433189E1,1.5119556E1,2.740802E1,2.7643074E1,1.5941825E1,1.4818563E1,1.3383581E1,1.1937443E1,1.2114746E1,1.7769192E1,0E0,0E0,9.886169E0,6.4679084E0,0E0,0E0,0E0,0E0,0E0,0E0,0E0,0E0,0E0,0E0,0E0,0E0,0E0,0E0,0E0,0E0,0E0,0E0,0E0,0E0,0E0,0E0,0E0,0E0,0E0,0E0,0E0,0E0,0E0,0E0,0E0,0E0,0E0,0E0,0E0,0E0,0E0,0E0,0E0,0E0,0E0,0E0,0E0,0E0,0E0,0E0,0E0,0E0,0E0,0E0,0E0,0E0,0E0,0E0,0E0,0E0,0E0,0E0,0E0,0E0],"parents":[2147483647,0,0,1,1,2,2,3,3,4,4,5,5,6,6,7,7,8,8,9,9,10,10,11,11,12,12,13,13,14,14,15,15,16,16,17,17,18,18,19,19,20,20,21,21,22,22,23,23,24,24,25,25,26,26,27,27,28,28,29,29,30,30,31,31,32,32,33,33,34,34,35,35,36,36,37,37,38,38,39,39,40,40,41,41,42,42,43,43,44,44,45,45,46,46,47,47,48,48,49,49,50,50,51,51,52,52,53,53,54,54,55,55,56,56,57,57,58,58,61,61,62,62],"right_children":[2,4,6,8,10,12,14,16,18,20,22,24,26,28,30,32,34,36,38,40,42,44,46,48,50,52,54,56,58,60,62,64,66,68,70,72,74,76,78,80,82,84,86,88,90,92,94,96,98,100,102,104,106,108,110,112,114,116,118,-1,-1,120,122,-1,-1,-1,-1,-1,-1,-1,-1,-1,-1,-1,-1,-1,-1,-1,-1,-1,-1,-1,-1,-1,-1,-1,-1,-1,-1,-1,-1,-1,-1,-1,-1,-1,-1,-1,-1,-1,-1,-1,-1,-1,-1,-1,-1,-1,-1,-1,-1,-1,-1,-1,-1,-1,-1,-1,-1,-1,-1,-1,-1],"split_conditions":[1.4772318E-2,1.1627839E-2,2.5266131E-2,-2.503779E-2,2.6685022E-2,6.726046E-4,5.239941E-2,2.5002342E-32,8.192981E-3,-3.253128E-2,1.0108739E-2,4.8216872E-2,1.5524403E-2,-1.68598E-2,-5.078986E-2,-1.585853E-2,-2.6622795E-2,-6.294772E-2,7.307646E-3,-3.7162777E-2,1.8345827E-2,-8.792024E-3,-3.5155095E-2,-4.377889E-2,3.8707193E-2,5.574511E-2,-1.68598E-2,3.3444904E-2,5.2412596E-2,1.3005797E-2,8.214433E-2,2.2587718E-2,-7.2356716E-2,-2.362198E-2,-2.6846142E-2,4.2229004E-2,-7.263363E-2,6.902862E-2,3.3074807E-2,-4.302921E-3,-6.028025E-2,5.2714314E-2,-2.8946232E-2,2.606307E-3,-6.68889E-2,6.254315E-2,2.2725679E-2,-7.3567596E-3,2.6325813E-2,-5.7613846E-2,3.0287257E-3,-3.453308E-2,2.8148487E-2,-2.3119321E-2,-8.042526E-33,-5.486674E-2,-7.357078E-3,6.487914E-2,-1.9575637E-2,4.1524217E-1,-1.36012705E-2,-2.6366446E-2,2.1345196E-2,2.6313427E-1,9.952389E-2,1.3025229E-1,3.271674E-1,-2.6027858E-1,1.3595338E-1,-2.6970653E-2,2.2710828E-1,1.1106507E-1,-2.1847278E-1,-9.384156E-2,2.015074E-1,1.0449118E-1,-2.1420214E-1,-1.9559337E-1,2.1206641E-1,-7.8164026E-2,2.9106012E-1,-2.7311364E-1,-6.507457E-3,-2.9079312E-1,-7.407506E-2,-2.6461816E-1,1.916947E-3,8.912604E-2,-2.703796E-1,4.6866883E-2,2.7683184E-1,2.9133457E-1,-2.4206336E-1,-3.3282107E-1,-5.288784E-2,9.90018E-2,-1.9173254E-1,2.1325956E-1,-8.384401E-2,-4.2726282E-2,-3.083188E-1,1.639308E-1,-2.9010558E-1,-2.1562617E-1,-3.182515E-1,-1.3780841E-1,2.215108E-1,2.1796261E-1,-3.1812277E-1,2.8338623E-1,-2.600274E-1,2.508514E-1,-4.4239875E-2,-3.171515E-1,9.2334226E-2,3.4079495E-1,1.18068345E-2,2.7563408E-1,-1.4589645E-1,1.466528E-1,-3.2345662E-1,3.1118613E-1,-1.7678592E-1],"split_indices":[48,173,14,321,292,186,5,127,31,116,180,164,270,44,23,230,2,24,94,370,14,221,164,296,344,90,44,324,164,294,330,363,44,142,46,37,46,186,239,372,239,320,297,307,105,71,330,121,238,156,233,370,331,104,223,342,24,6,173,0,0,37,68,0,0,0,0,0,0,0,0,0,0,0,0,0,0,0,0,0,0,0,0,0,0,0,0,0,0,0,0,0,0,0,0,0,0,0,0,0,0,0,0,0,0,0,0,0,0,0,0,0,0,0,0,0,0,0,0,0,0,0,0],"split_type":[0,0,0,0,0,0,0,0,0,0,0,0,0,0,0,0,0,0,0,0,0,0,0,0,0,0,0,0,0,0,0,0,0,0,0,0,0,0,0,0,0,0,0,0,0,0,0,0,0,0,0,0,0,0,0,0,0,0,0,0,0,0,0,0,0,0,0,0,0,0,0,0,0,0,0,0,0,0,0,0,0,0,0,0,0,0,0,0,0,0,0,0,0,0,0,0,0,0,0,0,0,0,0,0,0,0,0,0,0,0,0,0,0,0,0,0,0,0,0,0,0,0,0],"sum_hessian":[5.4325366E3,3.55508E3,1.8774564E3,2.3312786E3,1.2238014E3,1.564922E3,3.1253442E2,1.0561256E3,1.2751531E3,7.301951E2,4.9360626E2,4.1666373E2,1.1482582E3,2.4679906E2,6.573537E1,8.110647E2,2.4506088E2,7.318435E2,5.433096E2,2.2629497E2,5.0390015E2,3.3368063E2,1.5992563E2,2.864E2,1.3026372E2,1.0747114E3,7.3546844E1,8.551954E1,1.6127953E2,4.7758427E0,6.0959522E1,3.6181506E2,4.4924963E2,4.9643303E1,1.9541757E2,1.3409744E2,5.977461E2,2.6528812E2,2.7802145E2,8.672554E1,1.3956943E2,3.524014E2,1.5149876E2,1.0364877E2,2.3003186E2,2.5042063E1,1.3488356E2,1.0060918E2,1.8579083E2,1.017397E2,2.8524012E1,9.727001E2,1.0201134E2,2.567623E1,4.7870613E1,5.382371E1,3.1695827E1,1.2718157E2,3.4097946E1,3.7647269E0,1.0111156E0,5.2202522E1,8.757002E0,2.3453188E2,1.2728318E2,2.6031742E1,4.232179E2,4.1822105E1,7.821198E0,4.4707508E1,1.5071007E2,5.4346207E1,7.975123E1,4.586755E1,5.5187854E2,2.2689693E2,3.8391186E1,2.5886746E2,1.9154003E1,2.5187943E1,6.1537598E1,5.272211E1,8.684732E1,3.0728705E2,4.5114326E1,5.2128757E1,9.937001E1,7.6172424E1,2.747635E1,3.55481E1,1.9448376E2,2.2084661E1,2.9574003E0,5.1208614E1,8.367494E1,3.1543787E1,6.9065384E1,1.4590486E2,3.9885967E1,1.8049854E1,8.368984E1,1.9863926E1,8.660087E0,4.3771344E2,5.3498663E2,7.743228E1,2.4579058E1,5.778761E0,1.9897469E1,4.3625805E1,4.244811E0,2.6349106E1,2.7474607E1,2.3540323E1,8.155503E0,1.16079216E2,1.110236E1,1.7040854E1,1.7057093E1,3.8203564E0,4.8382164E1,5.724546E0,3.0324554E0],"tree_param":{"num_deleted":"0","num_feature":"384","num_nodes":"123","size_leaf_vector":"1"}},{"base_weights":[-3.720883E-3,-2.50432E-1,3.0551264E-1,-5.5419546E-1,1.4510708E-2,-9.3624756E-2,5.027064E-1,-7.118564E-1,-3.8738333E-2,-2.4156076E-1,3.4145907E-1,-3.904238E-1,3.1548923E-1,2.9548332E-1,8.4135354E-1,-7.743246E-1,1.9919536E-1,-2.7308324E-1,6.968221E-1,6.22127E-2,-5.760712E-1,7.0701495E-2,7.300321E-1,-6.588048E-1,2.0890437E-1,6.093422E-2,7.57564E-1,4.347066E-1,-3.6967516E-1,8.6862326E-1,-3.3701688E-1,-9.176071E-1,-4.4909024E-1,1.101053E0,-2.507054E-1,-4.7435796E-1,3.414937E-1,-2.273045E-1,9.604097E-1,4.016457E-1,-3.240327E-1,-3.7299967E-3,-7.3293877E-1,4.4842324E-1,-4.0822023E-1,8.736274E-1,7.0682876E-2,-9.0218306E-1,-3.09849E-1,-4.3209794E-1,5.6220263E-1,4.9487513E-1,-3.226672E-1,8.7804693E-1,-6.954057E-2,5.853371E-1,-1.4127806E-1,-8.698045E-1,1.03785265E-2,-5.940024E-1,9.065466E-1,-2.8329286E-1,6.338374E-2,-1.9091103E-2,-2.375878E-1,-6.76184E-2,4.143168E-1,1.717638E-1,-2.1185833E-1,-4.1331433E-2,-2.8141522E-1,1.87649E-1,-2.0669377E-1,-2.5457078E-1,1.8968114E-1,3.24784E-1,-6.745915E-2,2.4628434E-1,1.7984245E-2,1.1917231E-1,-1.7483504E-1,-1.0298081E-1,2.3804544E-1,-2.3785701E-1,2.812844E-1,2.0037739E-1,-9.731334E-2,1.4360078E-1,-1.8439734E-1,3.4643345E-2,2.9846817E-1,-1.4285153E-1,1.8299782E-1,-5.050585E-2,-3.0575866E-1,-1.4802243E-1,2.1805307E-1,-2.0988686E-1,2.0468242E-1,2.7327994E-1,-3.6308333E-2,2.1514548E-1,-1.1672865E-1,-1.4764921E-1,2.60087E-1,-2.572495E-1,2.8188804E-1,2.0951447E-1,-3.2938164E-1,8.310144E-2,2.4312036E-1,-1.397652E-1,1.3180934E-1,1.7001052E-1,-3.0899933E-1,-1.8444082E-1,1.0357778E-1,-5.4452705E-1,5.5107987E-4,2.9256618E-1,9.204145E-2],"categories":[],"categories_nodes":[],"categories_segments":[],"categories_sizes":[],"default_left":[0,0,0,0,0,0,0,0,0,0,0,0,0,0,0,0,0,0,0,0,0,0,0,0,0,0,0,0,0,0,0,0,0,0,0,0,0,0,0,0,0,0,0,0,0,0,0,0,0,0,0,0,0,0,0,0,0,0,0,0,0,0,0,0,0,0,0,0,0,0,0,0,0,0,0,0,0,0,0,0,0,0,0,0,0,0,0,0,0,0,0,0,0,0,0,0,0,0,0,0,0,0,0,0,0,0,0,0,0,0,0,0,0,0,0,0,0,0,0,0,0],"id":7,"left_children":[1,3,5,7,9,11,13,15,17,19,21,23,25,27,29,31,33,35,37,39,41,43,45,47,49,51,53,55,57,59,-1,61,63,65,67,69,71,73,75,77,79,81,83,85,87,89,91,93,95,97,99,101,103,105,107,109,111,113,115,117,119,-1,-1,-1,-1,-1,-1,-1,-1,-1,-1,-1,-1,-1,-1,-1,-1,-1,-1,-1,-1,-1,-1,-1,-1,-1,-1,-1,-1,-1,-1,-1,-1,-1,-1,-1,-1,-1,-1,-1,-1,-1,-1,-1,-1,-1,-1,-1,-1,-1,-1,-1,-1,-1,-1,-1,-1,-1,-1,-1,-1],"loss_changes":[3.8140106E2,2.2380176E2,1.7466164E2,1.05253296E2,1.2451476E2,8.930495E1,1.0396661E2,5.661035E1,5.267717E1,8.478845E1,6.867095E1,6.867614E1,3.4766327E1,8.562143E1,3.1151947E1,4.285852E1,2.6425982E1,2.881567E1,1.8207775E1,5.7555355E1,3.5644394E1,7.0022285E1,2.532492E1,2.4736351E1,3.0261604E1,3.301921E1,1.1317139E1,6.63315E1,3.0472082E1,3.1382507E1,0E0,1.9600647E1,3.773778E1,8.347012E0,1.6833485E1,2.7169811E1,1.7325584E1,9.720913E0,8.594246E0,3.341688E1,3.857119E1,2.3664192E1,3.1935806E1,3.691023E1,3.1556911E1,2.0120071E1,1.4753483E1,1.4683792E1,2.3679031E1,1.4687256E1,2.0574335E1,1.8555767E1,2.1675945E1,1.1350571E1,1.2840454E1,4.1792526E1,3.0191647E1,1.6511055E1,1.9484808E1,1.0667894E1,2.2041046E1,0E0,0E0,0E0,0E0,0E0,0E0,0E0,0E0,0E0,0E0,0E0,0E0,0E0,0E0,0E0,0E0,0E0,0E0,0E0,0E0,0E0,0E0,0E0,0E0,0E0,0E0,0E0,0E0,0E0,0E0,0E0,0E0,0E0,0E0,0E0,0E0,0E0,0E0,0E0,0E0,0E0,0E0,0E0,0E0,0E0,0E0,0E0,0E0,0E0,0E0,0E0,0E0,0E0,0E0,0E0,0E0,0E0,0E0,0E0,0E0],"parents":[2147483647,0,0,1,1,2,2,3,3,4,4,5,5,6,6,7,7,8,8,9,9,10,10,11,11,12,12,13,13,14,14,15,15,16,16,17,17,18,18,19,19,20,20,21,21,22,22,23,23,24,24,25,25,26,26,27,27,28,28,29,29,31,31,32,32,33,33,34,34,35,35,36,36,37,37,38,38,39,39,40,40,41,41,42,42,43,43,44,44,45,45,46,46,47,47,48,48,49,49,50,50,51,51,52,52,53,53,54,54,55,55,56,56,57,57,58,58,59,59,60,60],"right_children":[2,4,6,8,10,12,14,16,18,20,22,24,26,28,30,32,34,36,38,40,42,44,46,48,50,52,54,56,58,60,-1,62,64,66,68,70,72,74,76,78,80,82,84,86,88,90,92,94,96,98,100,102,104,106,108,110,112,114,116,118,120,-1,-1,-1,-1,-1,-1,-1,-1,-1,-1,-1,-1,-1,-1,-1,-1,-1,-1,-1,-1,-1,-1,-1,-1,-1,-1,-1,-1,-1,-1,-1,-1,-1,-1,-1,-1,-1,-1,-1,-1,-1,-1,-1,-1,-1,-1,-1,-1,-1,-1,-1,-1,-1,-1,-1,-1,-1,-1,-1,-1],"split_conditions":[-3.115287E-2,-3.4835994E-2,6.707165E-3,4.136927E-2,5.2877445E-2,6.337857E-2,-3.1825505E-2,2.1460818E-2,6.7590155E-2,-3.6763735E-2,-1.2650941E-2,-3.3388599E-3,5.574511E-2,2.9365744E-2,-5.6084095E-33,6.735153E-3,-8.133504E-3,1.900769E-2,1.1421754E-2,8.192981E-3,-2.5406402E-2,7.7929273E-3,2.9697606E-2,2.6903166E-3,-2.9331865E-2,8.665797E-3,1.013999E-1,5.3425137E-2,-2.6863707E-2,-9.495247E-2,-3.3701688E-1,1.14345394E-1,5.189424E-2,-6.308709E-2,1.0669462E-2,2.085661E-2,1.7652411E-2,-8.77958E-4,5.5131387E-2,-1.9472081E-2,-5.6007144E-4,3.21676E-2,1.0596636E-1,5.896738E-2,2.5554975E-2,-6.477572E-2,-2.040045E-2,-4.1723765E-2,2.687235E-2,3.537033E-2,1.9459704E-2,3.586616E-2,3.3975538E-2,-7.403934E-2,1.2927004E-2,-1.5698128E-3,2.1541378E-2,-3.5114117E-2,-1.0608737E-3,-4.5017276E-2,4.1571878E-2,-2.8329286E-1,6.338374E-2,-1.9091103E-2,-2.375878E-1,-6.76184E-2,4.143168E-1,1.717638E-1,-2.1185833E-1,-4.1331433E-2,-2.8141522E-1,1.87649E-1,-2.0669377E-1,-2.5457078E-1,1.8968114E-1,3.24784E-1,-6.745915E-2,2.4628434E-1,1.7984245E-2,1.1917231E-1,-1.7483504E-1,-1.0298081E-1,2.3804544E-1,-2.3785701E-1,2.812844E-1,2.0037739E-1,-9.731334E-2,1.4360078E-1,-1.8439734E-1,3.4643345E-2,2.9846817E-1,-1.4285153E-1,1.8299782E-1,-5.050585E-2,-3.0575866E-1,-1.4802243E-1,2.1805307E-1,-2.0988686E-1,2.0468242E-1,2.7327994E-1,-3.6308333E-2,2.1514548E-1,-1.1672865E-1,-1.4764921E-1,2.60087E-1,-2.572495E-1,2.8188804E-1,2.0951447E-1,-3.2938164E-1,8.310144E-2,2.4312036E-1,-1.397652E-1,1.3180934E-1,1.7001052E-1,-3.0899933E-1,-1.8444082E-1,1.0357778E-1,-5.4452705E-1,5.5107987E-4,2.9256618E-1,9.204145E-2],"split_indices":[239,24,152,90,330,304,270,215,109,332,215,242,90,48,223,44,73,46,344,31,173,31,104,297,98,6,16,186,14,182,0,109,37,242,164,180,321,46,21,120,37,90,109,174,197,296,118,138,44,144,363,271,44,9,137,383,46,227,275,134,104,0,0,0,0,0,0,0,0,0,0,0,0,0,0,0,0,0,0,0,0,0,0,0,0,0,0,0,0,0,0,0,0,0,0,0,0,0,0,0,0,0,0,0,0,0,0,0,0,0,0,0,0,0,0,0,0,0,0,0,0],"split_type":[0,0,0,0,0,0,0,0,0,0,0,0,0,0,0,0,0,0,0,0,0,0,0,0,0,0,0,0,0,0,0,0,0,0,0,0,0,0,0,0,0,0,0,0,0,0,0,0,0,0,0,0,0,0,0,0,0,0,0,0,0,0,0,0,0,0,0,0,0,0,0,0,0,0,0,0,0,0,0,0,0,0,0,0,0,0,0,0,0,0,0,0,0,0,0,0,0,0,0,0,0,0,0,0,0,0,0,0,0,0,0,0,0,0,0,0,0,0,0,0,0],"sum_hessian":[4.997267E3,2.7797395E3,2.2175278E3,1.2944866E3,1.4852529E3,7.334619E2,1.4840658E3,9.9099396E2,3.0349265E2,8.33053E2,6.5219995E2,4.251065E2,3.083554E2,9.218469E2,5.622189E2,9.275449E2,6.3448982E1,2.3064072E2,7.285194E1,4.370112E2,3.9604178E2,3.850672E2,2.6713278E2,2.9355322E2,1.3155327E2,1.9640154E2,1.1195388E2,7.6257916E2,1.5926778E2,5.5507263E2,7.1462603E0,6.426174E2,2.8492758E2,2.0635782E1,4.2813198E1,1.7391235E2,5.6728363E1,1.6198467E1,5.665347E1,2.3257983E2,2.0443137E2,8.5416855E1,3.106249E2,2.1531424E2,1.6975294E2,2.1909297E2,4.803981E1,1.7200407E2,1.2154915E2,4.6664703E1,8.4888565E1,9.201803E1,1.0438351E2,9.766552E1,1.4288363E1,6.044803E2,1.5809886E2,6.8213715E1,9.105406E1,1.3657739E1,5.4141486E2,6.2792804E2,1.4689326E1,1.3469221E2,1.5023535E2,3.630792E0,1.700499E1,1.5158577E1,2.7654621E1,1.0151876E2,7.23936E1,4.477984E1,1.19485235E1,9.4100685E0,6.7883987E0,5.1436855E1,5.2166133E0,1.0380136E2,1.2877847E2,5.383364E1,1.5059772E2,6.030286E1,2.5113997E1,3.0037668E2,1.0248245E1,1.6779155E2,4.75227E1,3.1803062E1,1.3794987E2,3.0480886E1,1.8861208E2,2.3911186E1,2.4128624E1,2.3990307E1,1.4801378E2,1.03710075E2,1.7839077E1,3.79309E1,8.733805E0,5.598153E1,2.8907034E1,7.3679794E1,1.8338234E1,9.1878944E1,1.2504562E1,2.9036984E0,9.476182E1,8.363844E0,5.9245186E0,2.5599886E2,3.4848145E2,1.015342E2,5.6564655E1,6.589134E0,6.1624584E1,3.1469143E1,5.9584915E1,3.8078403E0,9.849898E0,4.852274E2,5.6187477E1],"tree_param":{"num_deleted":"0","num_feature":"384","num_nodes":"121","size_leaf_vector":"1"}},{"base_weights":[-3.12023E-3,-2.5931048E-1,2.4477625E-1,3.708076E-1,-3.7147957E-1,5.820543E-1,2.795302E-2,2.2069719E-2,7.4990124E-1,-6.443454E-1,-1.259004E-1,-1.0992596E0,6.234017E-1,-2.2799066E-1,3.967608E-1,4.0256044E-1,-4.3131742E-1,9.2423016E-1,1.20333046E-1,-8.449179E-1,-3.358888E-1,1.530304E-1,-4.7550926E-1,9.897411E-2,-1.204332E0,4.2723954E-1,9.055027E-1,-4.4705847E-1,2.0897436E-1,6.064112E-1,3.8265783E-2,5.6897473E-1,-6.144455E-1,1.6846609E-1,-7.434307E-1,9.9616E-1,-1.4705922E-1,-1.1707754E0,4.3595883E-1,-9.2398125E-1,-2.933803E-1,2.369519E-1,-5.63994E-1,-1.6625598E-1,4.5743328E-1,-8.0043477E-1,-2.0389687E-1,-5.4561365E-2,-1.2485473E0,-2.8518813E-2,6.364118E-1,6.0138595E-1,1.0465257E0,3.118846E-1,-5.5546063E-1,-1.2977532E-1,6.0561913E-1,1.3813137E-1,8.254463E-1,3.1076953E-1,-3.9776137E-1,2.0266367E-1,-2.802596E-1,1.8320753E-1,-3.399753E-1,-3.2230996E-2,3.8647643E-1,3.312376E-3,-3.463069E-1,3.1110173E-1,-1.6880222E-1,1.5070239E-1,-2.9534113E-1,-4.616183E-1,1.23304114E-1,2.8418174E-1,-9.926764E-2,-2.9224917E-1,9.579596E-3,-1.9908841E-1,2.5858718E-1,-6.0484152E-2,2.4677704E-1,1.439634E-1,-2.0248903E-1,-1.2268883E-1,1.1320118E-1,1.6166558E-2,2.1831122E-1,-2.8834948E-1,-1.2083209E-1,-1.4900735E-1,8.506632E-2,-1.0384605E-1,-3.857722E-1,-2.2989048E-1,6.6123135E-2,8.931206E-2,2.6633906E-1,2.2687168E-1,-5.75754E-2,3.221763E-1,-9.833614E-2,-4.017859E-2,2.7225438E-1,-9.0755686E-2,-2.530974E-1,-1.7298982E-1,8.075548E-2,3.229166E-2,2.6111972E-1,-7.5140536E-2,1.9167711E-1,1.1616789E-1,2.9521006E-1,2.4261096E-1,1.5807636E-2,-2.6442137E-1,1.7724324E-2],"categories":[],"categories_nodes":[],"categories_segments":[],"categories_sizes":[],"default_left":[0,0,0,0,0,0,0,0,0,0,0,0,0,0,0,0,0,0,0,0,0,0,0,0,0,0,0,0,0,0,0,0,0,0,0,0,0,0,0,0,0,0,0,0,0,0,0,0,0,0,0,0,0,0,0,0,0,0,0,0,0,0,0,0,0,0,0,0,0,0,0,0,0,0,0,0,0,0,0,0,0,0,0,0,0,0,0,0,0,0,0,0,0,0,0,0,0,0,0,0,0,0,0,0,0,0,0,0,0,0,0,0,0,0,0,0,0,0,0],"id":8,"left_children":[1,3,5,7,9,11,13,15,17,19,21,23,25,27,29,31,33,35,37,39,41,43,45,-1,47,49,51,53,55,57,59,61,63,65,67,69,71,73,75,77,79,81,83,85,87,89,91,-1,93,95,97,99,101,103,105,107,109,111,113,115,117,-1,-1,-1,-1,-1,-1,-1,-1,-1,-1,-1,-1,-1,-1,-1,-1,-1,-1,-1,-1,-1,-1,-1,-1,-1,-1,-1,-1,-1,-1,-1,-1,-1,-1,-1,-1,-1,-1,-1,-1,-1,-1,-1,-1,-1,-1,-1,-1,-1,-1,-1,-1,-1,-1,-1,-1,-1,-1],"loss_changes":[2.925756E2,1.6026457E2,1.7120496E2,4.530975E1,1.288247E2,6.437268E1,1.3471587E2,3.1157251E1,1.7915024E1,5.607611E1,9.8925804E1,3.7536793E0,4.912793E1,8.074782E1,4.3917755E1,1.6964357E1,1.5557095E1,1.0046715E1,1.5493242E1,2.3771881E1,4.7253757E1,5.4950775E1,3.95599E1,0E0,7.238903E-1,5.051293E1,1.507193E1,4.637063E1,3.7974045E1,3.7717575E1,2.5884237E1,1.4229141E1,9.772127E0,9.10734E0,1.6879969E1,8.257416E0,5.3644238E0,4.9940176E0,1.2183615E1,2.3141602E1,3.0769287E1,2.672419E1,3.0233902E1,3.6607372E1,3.1514202E1,1.2689835E1,3.532279E1,0E0,2.2890472E-1,3.0945995E1,3.0651367E1,1.4682079E1,9.718079E0,1.8927296E1,3.5588684E1,2.742183E1,1.7059769E1,2.3268341E1,1.706903E1,1.7174889E1,1.8572628E1,0E0,0E0,0E0,0E0,0E0,0E0,0E0,0E0,0E0,0E0,0E0,0E0,0E0,0E0,0E0,0E0,0E0,0E0,0E0,0E0,0E0,0E0,0E0,0E0,0E0,0E0,0E0,0E0,0E0,0E0,0E0,0E0,0E0,0E0,0E0,0E0,0E0,0E0,0E0,0E0,0E0,0E0,0E0,0E0,0E0,0E0,0E0,0E0,0E0,0E0,0E0,0E0,0E0,0E0,0E0,0E0,0E0,0E0],"parents":[2147483647,0,0,1,1,2,2,3,3,4,4,5,5,6,6,7,7,8,8,9,9,10,10,11,11,12,12,13,13,14,14,15,15,16,16,17,17,18,18,19,19,20,20,21,21,22,22,24,24,25,25,26,26,27,27,28,28,29,29,30,30,31,31,32,32,33,33,34,34,35,35,36,36,37,37,38,38,39,39,40,40,41,41,42,42,43,43,44,44,45,45,46,46,48,48,49,49,50,50,51,51,52,52,53,53,54,54,55,55,56,56,57,57,58,58,59,59,60,60],"right_children":[2,4,6,8,10,12,14,16,18,20,22,24,26,28,30,32,34,36,38,40,42,44,46,-1,48,50,52,54,56,58,60,62,64,66,68,70,72,74,76,78,80,82,84,86,88,90,92,-1,94,96,98,100,102,104,106,108,110,112,114,116,118,-1,-1,-1,-1,-1,-1,-1,-1,-1,-1,-1,-1,-1,-1,-1,-1,-1,-1,-1,-1,-1,-1,-1,-1,-1,-1,-1,-1,-1,-1,-1,-1,-1,-1,-1,-1,-1,-1,-1,-1,-1,-1,-1,-1,-1,-1,-1,-1,-1,-1,-1,-1,-1,-1,-1,-1,-1,-1],"split_conditions":[-6.308606E-2,-2.0428695E-2,9.098517E-3,6.8875616E-3,-1.8184222E-2,5.947378E-33,9.635835E-3,3.4449883E-2,6.861176E-2,7.952557E-3,8.541957E-3,-1.1236582E-1,-3.3984485E-3,2.5621193E-2,-3.7205964E-2,8.415378E-2,3.0356914E-2,7.951386E-2,-1.8683241E-3,7.0787326E-2,-2.105351E-2,-1.8041147E-2,-2.0423453E-2,9.897411E-2,1.9265663E-2,-2.0974709E-2,-1.2634698E-2,-2.2267109E-2,-1.7306395E-2,3.5642087E-2,2.8638689E-2,1.0845534E-1,-4.1370176E-2,2.9330682E-2,-2.3413343E-2,6.9873266E-2,-9.925404E-3,1.1092713E-2,4.2222396E-2,2.0623263E-2,5.0831534E-2,6.345864E-2,-2.2364298E-2,2.723013E-2,-1.1745489E-2,7.163233E-2,-5.1152753E-3,-5.4561365E-2,-6.0565397E-2,-7.5553865E-3,-5.4488353E-2,6.90882E-2,8.565935E-2,-1.9408109E-3,1.7888036E-2,-3.8097363E-2,1.2533468E-2,8.777232E-3,-3.4450494E-2,-8.802486E-3,3.5982985E-2,2.0266367E-1,-2.802596E-1,1.8320753E-1,-3.399753E-1,-3.2230996E-2,3.8647643E-1,3.312376E-3,-3.463069E-1,3.1110173E-1,-1.6880222E-1,1.5070239E-1,-2.9534113E-1,-4.616183E-1,1.23304114E-1,2.8418174E-1,-9.926764E-2,-2.9224917E-1,9.579596E-3,-1.9908841E-1,2.5858718E-1,-6.0484152E-2,2.4677704E-1,1.439634E-1,-2.0248903E-1,-1.2268883E-1,1.1320118E-1,1.6166558E-2,2.1831122E-1,-2.8834948E-1,-1.2083209E-1,-1.4900735E-1,8.506632E-2,-1.0384605E-1,-3.857722E-1,-2.2989048E-1,6.6123135E-2,8.931206E-2,2.6633906E-1,2.2687168E-1,-5.75754E-2,3.221763E-1,-9.833614E-2,-4.017859E-2,2.7225438E-1,-9.0755686E-2,-2.530974E-1,-1.7298982E-1,8.075548E-2,3.229166E-2,2.6111972E-1,-7.5140536E-2,1.9167711E-1,1.1616789E-1,2.9521006E-1,2.4261096E-1,1.5807636E-2,-2.6442137E-1,1.7724324E-2],"split_indices":[41,164,5,221,296,127,372,37,309,297,180,332,44,297,8,240,128,99,109,323,6,46,46,0,99,49,265,123,230,304,324,309,301,24,316,307,111,278,299,270,361,77,37,297,0,198,378,0,333,320,86,164,62,265,6,215,285,134,144,69,78,0,0,0,0,0,0,0,0,0,0,0,0,0,0,0,0,0,0,0,0,0,0,0,0,0,0,0,0,0,0,0,0,0,0,0,0,0,0,0,0,0,0,0,0,0,0,0,0,0,0,0,0,0,0,0,0,0,0],"split_type":[0,0,0,0,0,0,0,0,0,0,0,0,0,0,0,0,0,0,0,0,0,0,0,0,0,0,0,0,0,0,0,0,0,0,0,0,0,0,0,0,0,0,0,0,0,0,0,0,0,0,0,0,0,0,0,0,0,0,0,0,0,0,0,0,0,0,0,0,0,0,0,0,0,0,0,0,0,0,0,0,0,0,0,0,0,0,0,0,0,0,0,0,0,0,0,0,0,0,0,0,0,0,0,0,0,0,0,0,0,0,0,0,0,0,0,0,0,0,0],"sum_hessian":[4.6048613E3,2.2645261E3,2.3403354E3,3.418504E2,1.9226757E3,9.151285E2,1.4252069E3,1.7860518E2,1.6324522E2,9.0997174E2,1.0127039E3,2.1350855E1,8.9377765E2,8.4156384E2,5.836431E2,9.717025E1,8.143494E1,1.27478165E2,3.5767048E1,5.503621E2,3.5960965E2,5.6360297E2,4.4910092E2,1.3156593E0,2.0035194E1,5.286731E2,3.6510452E2,5.605266E2,2.8103723E2,3.678376E2,2.1580553E2,8.388462E1,1.3285632E1,2.8030113E1,5.340482E1,1.1952313E2,7.955034E0,6.493827E0,2.9273222E1,4.807683E2,6.9593796E1,1.024039E2,2.5720575E2,2.752982E2,2.8830478E2,2.035957E2,2.4550522E2,1.0424433E0,1.8992752E1,1.6658038E2,3.620927E2,1.17335205E2,2.477693E2,6.982088E1,4.9070572E2,1.5194406E2,1.2909317E2,1.1774299E2,2.5009459E2,1.3298267E2,8.282286E1,7.884529E1,5.0393276E0,3.8996534E0,9.385979E0,2.3214413E1,4.8157015E0,1.9173964E1,3.4230858E1,1.1679747E2,2.7256656E0,4.7058444E0,3.2491894E0,5.290407E0,1.2034196E0,1.7421682E1,1.185154E1,4.5677014E2,2.3998161E1,5.302623E1,1.6567564E1,5.8929337E1,4.347456E1,2.4395613E1,2.3281013E2,1.9049327E2,8.480492E1,1.1612155E2,1.7218323E2,1.4398254E2,5.961316E1,1.533653E2,9.213992E1,1.1631577E0,1.7829594E1,4.1500824E1,1.2507956E2,1.5518613E2,2.0690659E2,9.821111E1,1.9124094E1,2.4314116E2,4.628144E0,4.0375805E1,2.9445072E1,2.624294E2,2.2827632E2,7.145981E1,8.0484245E1,4.5300865E1,8.3792305E1,6.65793E1,5.1163685E1,6.737119E1,1.8272339E2,4.4667595E1,8.831507E1,3.9779915E1,4.3042946E1],"tree_param":{"num_deleted":"0","num_feature":"384","num_nodes":"119","size_leaf_vector":"1"}},{"base_weights":[-2.0010537E-3,-1.8131211E-1,3.0191854E-1,-4.207079E-1,6.418225E-2,4.8862278E-1,-4.6344176E-2,-6.9768083E-1,-1.8691681E-1,-1.3552086E-1,4.272288E-1,7.743516E-1,2.9934853E-1,1.668468E-1,-6.35792E-1,-1.8618186E-1,-8.005866E-1,-5.1175565E-1,5.7286587E-2,2.0587309E-1,-4.3838304E-1,1.1399327E-1,6.638515E-1,3.478788E-1,9.299061E-1,6.5891534E-1,6.874269E-2,4.696945E-1,-2.4474451E-1,-8.5275733E-1,2.1463325E-3,-7.293698E-1,1.4609903E-1,-1.7677654E-1,-8.8995785E-1,-7.325013E-1,-7.655928E-2,4.2254812E-1,-3.4419444E-1,-4.690439E-1,3.588977E-1,-1.8529885E-1,-7.737128E-1,-9.209202E-2,6.1412704E-1,8.385153E-1,2.3761164E-1,5.953432E-1,-4.4704273E-1,1.1210923E0,6.289028E-1,7.949044E-1,-2.0581314E-1,3.2451192E-1,-3.3461982E-1,6.289836E-1,-2.58823E-1,4.6709727E-2,-7.505903E-1,-9.4245505E-1,8.474788E-1,-5.997892E-1,7.1689826E-1,-2.8255063E-1,1.2986086E-1,-9.8911144E-2,2.5118548E-1,8.195505E-2,-2.2558172E-1,4.1303486E-3,-2.7838483E-1,-4.061038E-2,-2.629355E-1,7.15633E-2,-2.0395878E-1,-7.547393E-3,2.3980856E-1,1.1308096E-2,-2.0810588E-1,-2.1719013E-1,1.3452837E-1,-1.01930656E-1,1.572294E-1,-1.0804745E-1,1.2920275E-1,2.0354806E-1,-2.6146126E-1,-2.2195815E-1,2.6474403E-2,2.6106232E-1,-1.6306708E-2,1.0067065E-1,2.9401687E-1,1.4661694E-1,-2.2241193E-1,-6.379488E-2,2.4306709E-1,-2.3870397E-1,1.6307747E-1,3.4964335E-1,6.8545733E-3,8.6463645E-2,2.8977954E-1,3.1573954E-1,1.2744531E-1,-2.2551434E-1,2.1268968E-1,1.939792E-1,1.114114E-2,-1.9111614E-1,1.3472688E-1,3.673321E-2,2.4374953E-1,2.2841777E-1,-2.084985E-1,2.0917802E-1,-7.095941E-2,-2.7798715E-1,7.7105895E-2,2.068902E-1,-2.9750466E-1,-5.9198823E-2,3.3067918E-1,6.731331E-2,-2.8863138E-1,2.7897665E-1,-2.5024813E-1],"categories":[],"categories_nodes":[],"categories_segments":[],"categories_sizes":[],"default_left":[0,0,0,0,0,0,0,0,0,0,0,0,0,0,0,0,0,0,0,0,0,0,0,0,0,0,0,0,0,0,0,0,0,0,0,0,0,0,0,0,0,0,0,0,0,0,0,0,0,0,0,0,0,0,0,0,0,0,0,0,0,0,0,0,0,0,0,0,0,0,0,0,0,0,0,0,0,0,0,0,0,0,0,0,0,0,0,0,0,0,0,0,0,0,0,0,0,0,0,0,0,0,0,0,0,0,0,0,0,0,0,0,0,0,0,0,0,0,0,0,0,0,0,0,0,0,0],"id":9,"left_children":[1,3,5,7,9,11,13,15,17,19,21,23,25,27,29,31,33,35,37,39,41,43,45,47,49,51,53,55,57,59,61,63,65,67,69,71,73,75,77,79,81,83,85,87,89,91,93,95,97,99,101,103,105,107,109,111,113,115,117,119,121,123,125,-1,-1,-1,-1,-1,-1,-1,-1,-1,-1,-1,-1,-1,-1,-1,-1,-1,-1,-1,-1,-1,-1,-1,-1,-1,-1,-1,-1,-1,-1,-1,-1,-1,-1,-1,-1,-1,-1,-1,-1,-1,-1,-1,-1,-1,-1,-1,-1,-1,-1,-1,-1,-1,-1,-1,-1,-1,-1,-1,-1,-1,-1,-1,-1],"loss_changes":[2.3383893E2,1.5863031E2,1.0355246E2,8.835257E1,9.67202E1,5.5829895E1,7.005146E1,3.2753693E1,5.891787E1,8.9100716E1,3.5009857E1,2.703717E1,5.1794365E1,5.116561E1,2.0493275E1,1.9238554E1,2.883847E1,3.0558838E1,6.2421955E1,4.2034954E1,3.859835E1,2.1177134E1,1.9861351E1,2.2263905E1,1.6651703E1,2.8876717E1,3.952052E1,2.7582836E1,2.572718E1,1.7647377E1,1.7024382E1,1.038357E1,2.2179022E1,1.7395739E1,1.5623535E1,1.8045685E1,2.0762323E1,3.7609596E1,2.7100885E1,1.7949492E1,3.8384087E1,2.8317657E1,2.8439888E1,1.7119282E1,1.0306025E1,1.3249268E1,1.9959648E1,1.5052887E1,9.798582E0,8.902267E0,1.3435318E1,1.9684128E1,1.7499475E1,2.1661465E1,3.553824E1,1.7951485E1,1.9709534E1,2.0710922E1,1.1547756E1,9.153267E0,1.8314438E0,6.6306267E0,6.752344E0,0E0,0E0,0E0,0E0,0E0,0E0,0E0,0E0,0E0,0E0,0E0,0E0,0E0,0E0,0E0,0E0,0E0,0E0,0E0,0E0,0E0,0E0,0E0,0E0,0E0,0E0,0E0,0E0,0E0,0E0,0E0,0E0,0E0,0E0,0E0,0E0,0E0,0E0,0E0,0E0,0E0,0E0,0E0,0E0,0E0,0E0,0E0,0E0,0E0,0E0,0E0,0E0,0E0,0E0,0E0,0E0,0E0,0E0,0E0,0E0,0E0,0E0,0E0,0E0],"parents":[2147483647,0,0,1,1,2,2,3,3,4,4,5,5,6,6,7,7,8,8,9,9,10,10,11,11,12,12,13,13,14,14,15,15,16,16,17,17,18,18,19,19,20,20,21,21,22,22,23,23,24,24,25,25,26,26,27,27,28,28,29,29,30,30,31,31,32,32,33,33,34,34,35,35,36,36,37,37,38,38,39,39,40,40,41,41,42,42,43,43,44,44,45,45,46,46,47,47,48,48,49,49,50,50,51,51,52,52,53,53,54,54,55,55,56,56,57,57,58,58,59,59,60,60,61,61,62,62],"right_children":[2,4,6,8,10,12,14,16,18,20,22,24,26,28,30,32,34,36,38,40,42,44,46,48,50,52,54,56,58,60,62,64,66,68,70,72,74,76,78,80,82,84,86,88,90,92,94,96,98,100,102,104,106,108,110,112,114,116,118,120,122,124,126,-1,-1,-1,-1,-1,-1,-1,-1,-1,-1,-1,-1,-1,-1,-1,-1,-1,-1,-1,-1,-1,-1,-1,-1,-1,-1,-1,-1,-1,-1,-1,-1,-1,-1,-1,-1,-1,-1,-1,-1,-1,-1,-1,-1,-1,-1,-1,-1,-1,-1,-1,-1,-1,-1,-1,-1,-1,-1,-1,-1,-1,-1,-1,-1],"split_conditions":[8.135518E-3,-4.4091498E-3,4.7441434E-2,2.2344291E-2,-3.1240115E-2,-3.4983166E-2,3.1584144E-2,-3.2337453E-2,-2.2822095E-2,-6.0244888E-2,-1.34631675E-2,-8.132585E-2,3.5281967E-2,2.0099267E-2,4.173045E-3,1.3494745E-2,-5.822307E-3,-1.3629742E-2,1.4020901E-3,-7.786811E-2,-7.3045967E-3,4.3254257E-3,4.2807054E-2,5.2288853E-2,3.0350665E-2,6.0087252E-2,1.9922307E-2,5.220307E-2,-1.3743079E-2,4.619777E-2,2.3738004E-2,4.670625E-2,5.1487233E-2,1.1840932E-2,-9.192299E-2,-6.371828E-3,9.92891E-3,4.7450926E-2,3.9217256E-2,9.578655E-2,-1.046229E-2,9.669034E-3,-2.1402878E-3,-7.6524794E-2,2.0066557E-2,-5.344759E-2,3.5178736E-2,-5.416678E-2,1.2568451E-2,1.1286244E-1,-2.1008227E-3,5.4329902E-2,2.1990286E-2,2.7205618E-4,-3.0106427E-2,2.438572E-2,5.284042E-3,2.0973484E-3,6.516439E-2,-4.6490416E-2,-1.0933424E-2,-2.2284057E-2,7.6823965E-2,-2.8255063E-1,1.2986086E-1,-9.8911144E-2,2.5118548E-1,8.195505E-2,-2.2558172E-1,4.1303486E-3,-2.7838483E-1,-4.061038E-2,-2.629355E-1,7.15633E-2,-2.0395878E-1,-7.547393E-3,2.3980856E-1,1.1308096E-2,-2.0810588E-1,-2.1719013E-1,1.3452837E-1,-1.01930656E-1,1.572294E-1,-1.0804745E-1,1.2920275E-1,2.0354806E-1,-2.6146126E-1,-2.2195815E-1,2.6474403E-2,2.6106232E-1,-1.6306708E-2,1.0067065E-1,2.9401687E-1,1.4661694E-1,-2.2241193E-1,-6.379488E-2,2.4306709E-1,-2.3870397E-1,1.6307747E-1,3.4964335E-1,6.8545733E-3,8.6463645E-2,2.8977954E-1,3.1573954E-1,1.2744531E-1,-2.2551434E-1,2.1268968E-1,1.939792E-1,1.114114E-2,-1.9111614E-1,1.3472688E-1,3.673321E-2,2.4374953E-1,2.2841777E-1,-2.084985E-1,2.0917802E-1,-7.095941E-2,-2.7798715E-1,7.7105895E-2,2.068902E-1,-2.9750466E-1,-5.9198823E-2,3.3067918E-1,6.731331E-2,-2.8863138E-1,2.7897665E-1,-2.5024813E-1],"split_indices":[46,14,99,320,289,370,48,238,49,342,93,41,197,33,24,344,37,230,31,338,307,13,123,149,374,132,240,6,307,144,320,101,70,357,307,30,23,304,220,330,320,98,232,24,324,336,173,230,45,16,144,309,157,104,86,46,197,186,292,30,97,251,377,0,0,0,0,0,0,0,0,0,0,0,0,0,0,0,0,0,0,0,0,0,0,0,0,0,0,0,0,0,0,0,0,0,0,0,0,0,0,0,0,0,0,0,0,0,0,0,0,0,0,0,0,0,0,0,0,0,0,0,0,0,0,0,0],"split_type":[0,0,0,0,0,0,0,0,0,0,0,0,0,0,0,0,0,0,0,0,0,0,0,0,0,0,0,0,0,0,0,0,0,0,0,0,0,0,0,0,0,0,0,0,0,0,0,0,0,0,0,0,0,0,0,0,0,0,0,0,0,0,0,0,0,0,0,0,0,0,0,0,0,0,0,0,0,0,0,0,0,0,0,0,0,0,0,0,0,0,0,0,0,0,0,0,0,0,0,0,0,0,0,0,0,0,0,0,0,0,0,0,0,0,0,0,0,0,0,0,0,0,0,0,0,0,0],"sum_hessian":[4.2889214E3,2.697697E3,1.5912246E3,1.3654519E3,1.3322451E3,1.0356226E3,5.5560205E2,6.240976E2,7.413543E2,8.5987524E2,4.7236984E2,4.1143225E2,6.241903E2,4.0855368E2,1.4704839E2,1.0499972E2,5.190979E2,3.1768063E2,4.236737E2,4.043744E2,4.5550085E2,2.0391446E2,2.6845538E2,1.10825676E2,3.0060657E2,2.4317226E2,3.81018E2,2.3528815E2,1.7326552E2,1.0947781E2,3.757057E1,3.939867E1,6.560104E1,6.542315E1,4.5367474E2,2.103176E2,1.07363045E2,2.2181616E2,2.0185754E2,7.435694E1,3.3001746E2,2.6046906E2,1.950318E2,1.4498695E2,5.892751E1,1.8973775E2,7.871761E1,8.470692E1,2.611876E1,1.8217265E2,1.18433914E2,2.1019698E2,3.2975285E1,2.3328757E2,1.4773045E2,1.9318517E2,4.210299E1,1.1050391E2,6.2761612E1,1.04414986E2,5.062827E0,2.0482159E1,1.7088413E1,3.3469795E1,5.928878E0,3.9164043E1,2.6437002E1,3.7001354E1,2.8421797E1,1.8328234E1,4.3534653E2,4.1229603E1,1.69088E2,7.092416E1,3.6438885E1,1.01798676E2,1.2001748E2,9.688447E1,1.04973076E2,5.835397E1,1.600297E1,6.290833E1,2.671091E2,2.0320088E2,5.726818E1,1.1934109E1,1.8309769E2,3.0898645E1,1.1408831E2,4.2387894E1,1.6539616E1,4.2410095E1,1.4732767E2,6.304678E1,1.56708355E1,1.7797014E1,6.69099E1,1.946513E1,6.6536283E0,1.7503734E2,7.1353264E0,5.9819584E1,5.8614334E1,1.2285359E2,8.734339E1,2.0763037E1,1.2212247E1,1.0941115E2,1.2387641E2,1.067303E2,4.100016E1,5.1819515E1,1.4136565E2,1.2386072E1,2.9716915E1,3.3075085E1,7.7428825E1,5.3496017E1,9.2655945E0,2.6762638E0,1.0173872E2,1.0367771E0,4.0260496E0,6.370882E0,1.4111277E1,1.5376983E1,1.7114305E0],"tree_param":{"num_deleted":"0","num_feature":"384","num_nodes":"127","size_leaf_vector":"1"}},{"base_weights":[-1.4456E-3,-3.098641E-1,1.4855678E-1,-6.6707894E-2,-5.986852E-1,-3.4715354E-1,2.5801453E-1,2.888531E-1,-3.4761593E-1,-6.8290883E-1,7.249936E-2,-5.0157064E-1,2.2849378E-1,4.310627E-1,1.5295476E-3,4.1629326E-1,-9.7874737E-1,-2.233217E-2,-6.336335E-1,-8.4585756E-2,-7.715104E-1,6.820287E-1,-2.6712844E-1,-3.0745834E-1,-8.480539E-1,-4.0867013E-1,6.263425E-1,5.060251E-1,-2.9478508E-1,-1.9511646E-1,4.4656035E-1,1.04485296E-1,7.4643725E-1,-3.1753033E-1,1.3831727E-1,-6.774696E-1,1.8334477E-1,-7.4676746E-1,2.4879651E-1,7.8212464E-1,-5.6866914E-1,-8.040308E-1,4.6639717E-1,1.0054779E0,-6.7805254E-1,9.8720354E-1,-4.6343985E-1,-4.2066565E-1,5.2427596E-1,-9.2817324E-1,2.801467E-1,8.8867545E-1,-5.889095E-1,1.958857E-1,1.1074637E0,6.987957E-1,2.876019E-1,-7.4206847E-1,2.2364794E-1,2.3294617E-1,-3.8441598E-1,1.2314829E-1,7.94591E-1,-2.1094097E-1,9.56985E-2,5.0992858E-2,2.7165428E-1,4.6043355E-2,-2.8198653E-1,-6.866995E-2,1.5545215E-1,-2.6888105E-1,-5.435137E-2,-2.4009943E-1,2.1415702E-1,-1.2687491E-1,3.264697E-1,1.5516712E-1,-2.2065464E-1,-6.5904274E-3,-2.5248346E-1,-3.5559857E-1,2.4166556E-1,3.7247744E-1,-7.86235E-2,-3.0765617E-1,1.12986654E-1,4.2512077E-1,-1.2885247E-1,-2.4079801E-1,4.7147807E-2,-1.8601033E-1,1.8969324E-3,-1.6189304E-1,2.3774163E-1,-2.920644E-1,8.250956E-2,3.3670342E-1,-1.9663446E-1,3.8482347E-1,-8.049191E-2,-2.1833967E-1,3.4409055E-1,-9.9198215E-2,2.6581702E-1,3.635467E-1,-2.8049314E-1,2.261083E-1,-5.6915704E-2,1.21502645E-1,-8.757369E-2,-3.118912E-1,1.7600363E-2,2.42677E-1,-1.4018726E-1,1.2995078E-1,-1.0978289E-1,3.879063E-2,-1.7299369E-1,1.3407063E-1,-1.4022185E-1,-4.2563352E-1,2.506259E-1],"categories":[],"categories_nodes":[],"categories_segments":[],"categories_sizes":[],"default_left":[0,0,0,0,0,0,0,0,0,0,0,0,0,0,0,0,0,0,0,0,0,0,0,0,0,0,0,0,0,0,0,0,0,0,0,0,0,0,0,0,0,0,0,0,0,0,0,0,0,0,0,0,0,0,0,0,0,0,0,0,0,0,0,0,0,0,0,0,0,0,0,0,0,0,0,0,0,0,0,0,0,0,0,0,0,0,0,0,0,0,0,0,0,0,0,0,0,0,0,0,0,0,0,0,0,0,0,0,0,0,0,0,0,0,0,0,0,0,0,0,0,0,0],"id":10,"left_children":[1,3,5,7,9,11,13,15,17,19,21,23,25,27,29,31,33,35,37,39,41,43,45,47,49,51,53,55,57,59,61,63,65,-1,-1,67,69,71,73,75,77,79,81,83,85,87,89,91,93,95,97,99,101,103,105,107,109,111,113,115,117,119,121,-1,-1,-1,-1,-1,-1,-1,-1,-1,-1,-1,-1,-1,-1,-1,-1,-1,-1,-1,-1,-1,-1,-1,-1,-1,-1,-1,-1,-1,-1,-1,-1,-1,-1,-1,-1,-1,-1,-1,-1,-1,-1,-1,-1,-1,-1,-1,-1,-1,-1,-1,-1,-1,-1,-1,-1,-1,-1,-1,-1],"loss_changes":[1.8514932E2,9.192684E1,1.4618446E2,7.122467E1,3.387889E1,4.344204E1,9.79155E1,5.1266586E1,3.7039124E1,2.8127258E1,1.4181699E1,2.56092E1,2.656464E1,7.182591E1,7.79555E1,2.9442955E1,3.8220596E0,2.5372728E1,2.133905E1,2.9695494E1,1.9017792E1,1.145071E1,1.1328184E1,2.3581123E1,1.2692917E1,9.99326E0,1.3096653E1,5.0088715E1,2.8906734E1,5.015129E1,3.0628605E1,2.597601E1,1.2604416E1,0E0,0E0,9.955729E0,1.9911493E1,1.5739464E1,1.2685336E1,9.831673E0,8.589916E0,1.3254456E1,7.949997E0,6.3647366E0,2.3286395E0,4.44149E0,8.3054695E0,1.8641075E1,9.035839E0,7.291832E0,8.52722E0,2.778242E0,9.5527525E0,1.306454E1,7.557522E0,3.1055817E1,3.8330902E1,1.5970325E1,2.390306E1,2.2948513E1,4.2413883E1,2.7488554E1,1.3051109E1,0E0,0E0,0E0,0E0,0E0,0E0,0E0,0E0,0E0,0E0,0E0,0E0,0E0,0E0,0E0,0E0,0E0,0E0,0E0,0E0,0E0,0E0,0E0,0E0,0E0,0E0,0E0,0E0,0E0,0E0,0E0,0E0,0E0,0E0,0E0,0E0,0E0,0E0,0E0,0E0,0E0,0E0,0E0,0E0,0E0,0E0,0E0,0E0,0E0,0E0,0E0,0E0,0E0,0E0,0E0,0E0,0E0,0E0,0E0,0E0],"parents":[2147483647,0,0,1,1,2,2,3,3,4,4,5,5,6,6,7,7,8,8,9,9,10,10,11,11,12,12,13,13,14,14,15,15,16,16,17,17,18,18,19,19,20,20,21,21,22,22,23,23,24,24,25,25,26,26,27,27,28,28,29,29,30,30,31,31,32,32,35,35,36,36,37,37,38,38,39,39,40,40,41,41,42,42,43,43,44,44,45,45,46,46,47,47,48,48,49,49,50,50,51,51,52,52,53,53,54,54,55,55,56,56,57,57,58,58,59,59,60,60,61,61,62,62],"right_children":[2,4,6,8,10,12,14,16,18,20,22,24,26,28,30,32,34,36,38,40,42,44,46,48,50,52,54,56,58,60,62,64,66,-1,-1,68,70,72,74,76,78,80,82,84,86,88,90,92,94,96,98,100,102,104,106,108,110,112,114,116,118,120,122,-1,-1,-1,-1,-1,-1,-1,-1,-1,-1,-1,-1,-1,-1,-1,-1,-1,-1,-1,-1,-1,-1,-1,-1,-1,-1,-1,-1,-1,-1,-1,-1,-1,-1,-1,-1,-1,-1,-1,-1,-1,-1,-1,-1,-1,-1,-1,-1,-1,-1,-1,-1,-1,-1,-1,-1,-1,-1,-1,-1],"split_conditions":[8.17778E-3,4.0278714E-2,-7.905205E-2,4.0547106E-2,8.941604E-2,2.5700536E-2,3.5048544E-2,-6.889615E-33,1.5716746E-2,-1.039542E-2,8.874531E-3,3.6073703E-2,-1.5917908E-2,7.8172885E-2,2.279188E-2,-2.3165187E-3,3.982169E-2,-3.414815E-2,1.722893E-2,-1.3567138E-2,4.1325446E-2,7.0833035E-2,-2.939294E-3,3.5451587E-2,9.640694E-2,-5.3219438E-2,-1.8980805E-2,-2.9611701E-2,5.2401952E-2,1.5191416E-2,3.5047117E-3,-3.1904254E-2,-2.3862623E-2,-3.1753033E-1,1.3831727E-1,-4.6235677E-2,-8.638715E-3,-1.3464571E-2,-2.849054E-2,-5.6173716E-2,-4.057228E-2,-1.14863686E-1,-7.620158E-2,7.7638894E-2,-4.4344172E-2,3.0574232E-2,-2.6598988E-2,6.9261014E-2,-4.9674656E-2,4.7766443E-2,6.9722794E-2,3.3033654E-2,1.2209331E-1,1.9337269E-2,5.4968074E-2,9.3819655E-2,6.441655E-2,6.696998E-2,1.01163555E-2,3.9298937E-2,-5.9227645E-2,2.4473265E-2,-1.227989E-1,-2.1094097E-1,9.56985E-2,5.0992858E-2,2.7165428E-1,4.6043355E-2,-2.8198653E-1,-6.866995E-2,1.5545215E-1,-2.6888105E-1,-5.435137E-2,-2.4009943E-1,2.1415702E-1,-1.2687491E-1,3.264697E-1,1.5516712E-1,-2.2065464E-1,-6.5904274E-3,-2.5248346E-1,-3.5559857E-1,2.4166556E-1,3.7247744E-1,-7.86235E-2,-3.0765617E-1,1.12986654E-1,4.2512077E-1,-1.2885247E-1,-2.4079801E-1,4.7147807E-2,-1.8601033E-1,1.8969324E-3,-1.6189304E-1,2.3774163E-1,-2.920644E-1,8.250956E-2,3.3670342E-1,-1.9663446E-1,3.8482347E-1,-8.049191E-2,-2.1833967E-1,3.4409055E-1,-9.9198215E-2,2.6581702E-1,3.635467E-1,-2.8049314E-1,2.261083E-1,-5.6915704E-2,1.21502645E-1,-8.757369E-2,-3.118912E-1,1.7600363E-2,2.42677E-1,-1.4018726E-1,1.2995078E-1,-1.0978289E-1,3.879063E-2,-1.7299369E-1,1.3407063E-1,-1.4022185E-1,-4.2563352E-1,2.506259E-1],"split_indices":[344,37,239,309,257,49,123,223,294,92,123,377,196,174,258,230,215,221,239,6,239,349,359,221,109,321,87,370,330,37,265,297,320,0,0,199,378,270,221,118,294,8,51,133,246,149,239,148,13,61,362,69,257,275,117,243,186,109,12,150,370,73,282,0,0,0,0,0,0,0,0,0,0,0,0,0,0,0,0,0,0,0,0,0,0,0,0,0,0,0,0,0,0,0,0,0,0,0,0,0,0,0,0,0,0,0,0,0,0,0,0,0,0,0,0,0,0,0,0,0,0,0,0],"split_type":[0,0,0,0,0,0,0,0,0,0,0,0,0,0,0,0,0,0,0,0,0,0,0,0,0,0,0,0,0,0,0,0,0,0,0,0,0,0,0,0,0,0,0,0,0,0,0,0,0,0,0,0,0,0,0,0,0,0,0,0,0,0,0,0,0,0,0,0,0,0,0,0,0,0,0,0,0,0,0,0,0,0,0,0,0,0,0,0,0,0,0,0,0,0,0,0,0,0,0,0,0,0,0,0,0,0,0,0,0,0,0,0,0,0,0,0,0,0,0,0,0,0,0],"sum_hessian":[4.000064E3,1.3085338E3,2.69153E3,7.110975E2,5.974364E2,4.864287E2,2.2051013E3,3.138331E2,3.9726437E2,5.308102E2,6.66262E1,3.8364487E2,1.0278387E2,1.3163147E3,8.887866E2,2.8577396E2,2.8059128E1,1.863777E2,2.1088669E2,6.87176E1,4.620926E2,2.3479471E1,4.3146725E1,2.470987E2,1.3654616E2,3.9498653E1,6.3285213E1,1.1933715E3,1.2294328E2,6.168017E2,2.7198492E2,1.476453E2,1.3812866E2,2.6838604E1,1.2205241E0,4.39837E1,1.42394E2,1.8705818E2,2.3828497E1,2.4405657E1,4.4311947E1,4.506055E2,1.1487102E1,1.9179094E1,4.3003755E0,5.2937207E0,3.7853004E1,2.1793042E2,2.9168268E1,1.27657814E2,8.888344E0,4.3386855E0,3.515997E1,3.414394E1,2.914127E1,6.3274207E2,5.6062933E2,6.576902E1,5.7174263E1,1.8905696E2,4.277447E2,1.416804E2,1.3030452E2,3.0507538E1,1.1713776E2,3.0320858E1,1.0780781E2,1.0658257E1,3.3325443E1,6.3961002E1,7.8433E1,1.4748833E2,3.9569862E1,7.0971465E0,1.673135E1,4.866463E0,1.9539192E1,5.622005E0,3.868994E1,2.0732962E1,4.2987253E2,1.5318499E0,9.955252E0,1.6184769E1,2.9943268E0,3.2554824E0,1.0448928E0,4.0611997E0,1.2325212E0,2.4285282E1,1.3567722E1,1.4825526E2,6.9675156E1,5.6687045E0,2.3499563E1,1.2320254E2,4.4552817E0,4.572602E0,4.315742E0,3.1552901E0,1.1833954E0,3.3092903E1,2.0670657E0,1.9663292E1,1.448065E1,2.8111588E1,1.0296828E0,5.9606476E2,3.66773E1,4.6643326E2,9.41961E1,4.77324E1,1.8036623E1,3.0861538E1,2.6312725E1,1.4189482E2,4.7162144E1,1.1656407E2,3.1118063E2,9.166891E1,5.0011494E1,1.7488296E0,1.285557E2],"tree_param":{"num_deleted":"0","num_feature":"384","num_nodes":"123","size_leaf_vector":"1"}},{"base_weights":[-2.44023E-3,8.305291E-2,-4.929405E-1,-2.096395E-1,2.2373512E-1,2.0819165E-1,-6.1282206E-1,-4.263148E-1,1.2431693E-1,3.564423E-2,4.5671082E-1,6.2463295E-1,-4.851984E-1,-1.0435889E-1,-7.2810525E-1,-5.361146E-1,9.757693E-2,-8.2813345E-2,4.8710415E-1,-1.3688412E-1,3.9000553E-1,-1.0668791E-1,5.417885E-1,1.3343078E-1,1.0516379E0,-7.754043E-1,6.766767E-1,-3.523096E-1,8.202811E-1,-8.4123325E-1,-3.643583E-1,-7.3940104E-1,-2.4353367E-1,-6.742239E-1,3.7471995E-1,-2.6011527E-1,5.781645E-1,6.7353684E-1,-1.6825356E-1,-2.888616E-1,3.061554E-1,-2.170948E-1,5.860019E-1,3.9185962E-1,-4.8972553E-1,6.70018E-1,1.9693622E-1,-3.5018495E-1,9.3837047E-1,-1.917905E-1,1.1595136E0,9.5232606E-1,-9.691065E-1,-1.4344217E-1,1.0353056E0,-5.891766E-1,5.341203E-1,-4.6791455E-1,1.046949E0,-8.7902373E-1,2.905519E-1,4.7772074E-1,-5.387359E-1,1.8185402E-1,-2.3339958E-1,-1.9923587E-1,1.5402604E-2,2.3206262E-1,-2.503772E-1,-5.954604E-2,2.1188281E-1,-1.3592581E-1,7.7950016E-2,2.4400666E-1,-8.37197E-2,2.858799E-1,4.380664E-2,-1.8516085E-1,2.5496507E-1,1.7536944E-3,-1.740014E-1,1.8630254E-1,-2.0641074E-2,1.1174918E-1,-1.766294E-1,6.056459E-2,2.646815E-1,-2.0557256E-1,1.9390036E-1,3.39773E-2,-2.5693896E-1,2.2349933E-1,4.6236195E-2,-1.3237584E-1,1.2823461E-1,-2.715359E-1,1.577859E-1,3.5406572E-1,-8.664049E-2,-5.0958917E-2,3.665717E-1,-1.15029655E-1,5.5522287E-1,-3.3640403E-1,2.1216048E-1,3.5016805E-1,8.318892E-2,3.5277907E-2,-2.5688085E-1,-9.78771E-2,2.8920576E-1,-2.981863E-1,1.2163793E-1,-1.531578E-1,3.6045158E-1,-1.5173632E-1,-2.9169863E-1,3.6001778E-1,-1.4265993E-1,3.9582428E-1,-1.3546829E-2,3.0370358E-2,-2.4008098E-1],"categories":[],"categories_nodes":[],"categories_segments":[],"categories_sizes":[],"default_left":[0,0,0,0,0,0,0,0,0,0,0,0,0,0,0,0,0,0,0,0,0,0,0,0,0,0,0,0,0,0,0,0,0,0,0,0,0,0,0,0,0,0,0,0,0,0,0,0,0,0,0,0,0,0,0,0,0,0,0,0,0,0,0,0,0,0,0,0,0,0,0,0,0,0,0,0,0,0,0,0,0,0,0,0,0,0,0,0,0,0,0,0,0,0,0,0,0,0,0,0,0,0,0,0,0,0,0,0,0,0,0,0,0,0,0,0,0,0,0,0,0,0,0],"id":11,"left_children":[1,3,5,7,9,11,13,15,17,19,21,23,25,27,29,31,33,35,37,39,41,43,45,47,49,51,53,55,57,59,61,63,65,67,69,71,73,75,77,79,81,83,85,87,89,91,93,95,97,-1,99,101,103,-1,105,107,109,111,113,115,117,119,121,-1,-1,-1,-1,-1,-1,-1,-1,-1,-1,-1,-1,-1,-1,-1,-1,-1,-1,-1,-1,-1,-1,-1,-1,-1,-1,-1,-1,-1,-1,-1,-1,-1,-1,-1,-1,-1,-1,-1,-1,-1,-1,-1,-1,-1,-1,-1,-1,-1,-1,-1,-1,-1,-1,-1,-1,-1,-1,-1,-1],"loss_changes":[1.5762012E2,1.3184732E2,4.702043E1,7.527707E1,9.4736E1,2.4041336E1,2.7866196E1,3.6333763E1,3.083834E1,7.326357E1,4.6351486E1,1.0724251E1,1.1115589E1,2.075566E1,1.5676895E1,3.0843231E1,2.3809824E1,3.0825611E1,1.8330559E1,5.436496E1,4.6814816E1,2.4548353E1,3.6980377E1,1.0151699E1,5.769413E0,9.489828E0,3.3159811E0,1.5241902E1,6.0894966E0,1.2894562E1,1.404674E1,1.6430023E1,2.6738827E1,7.484359E0,1.5662863E1,2.0894882E1,1.1451227E1,1.6998787E1,1.5984255E1,5.1546764E1,2.4407063E1,2.1362917E1,3.3607803E1,1.57847E1,1.61456E1,2.3533813E1,3.386209E1,8.494183E0,3.2323132E0,0E0,2.3862152E0,4.411824E0,6.793703E0,0E0,2.2764921E-1,1.0781031E1,6.053435E0,2.0388505E0,4.6133137E0,9.475449E0,7.7472124E0,7.383003E0,1.3180941E1,0E0,0E0,0E0,0E0,0E0,0E0,0E0,0E0,0E0,0E0,0E0,0E0,0E0,0E0,0E0,0E0,0E0,0E0,0E0,0E0,0E0,0E0,0E0,0E0,0E0,0E0,0E0,0E0,0E0,0E0,0E0,0E0,0E0,0E0,0E0,0E0,0E0,0E0,0E0,0E0,0E0,0E0,0E0,0E0,0E0,0E0,0E0,0E0,0E0,0E0,0E0,0E0,0E0,0E0,0E0,0E0,0E0,0E0,0E0,0E0],"parents":[2147483647,0,0,1,1,2,2,3,3,4,4,5,5,6,6,7,7,8,8,9,9,10,10,11,11,12,12,13,13,14,14,15,15,16,16,17,17,18,18,19,19,20,20,21,21,22,22,23,23,24,24,25,25,26,26,27,27,28,28,29,29,30,30,31,31,32,32,33,33,34,34,35,35,36,36,37,37,38,38,39,39,40,40,41,41,42,42,43,43,44,44,45,45,46,46,47,47,48,48,50,50,51,51,52,52,54,54,55,55,56,56,57,57,58,58,59,59,60,60,61,61,62,62],"right_children":[2,4,6,8,10,12,14,16,18,20,22,24,26,28,30,32,34,36,38,40,42,44,46,48,50,52,54,56,58,60,62,64,66,68,70,72,74,76,78,80,82,84,86,88,90,92,94,96,98,-1,100,102,104,-1,106,108,110,112,114,116,118,120,122,-1,-1,-1,-1,-1,-1,-1,-1,-1,-1,-1,-1,-1,-1,-1,-1,-1,-1,-1,-1,-1,-1,-1,-1,-1,-1,-1,-1,-1,-1,-1,-1,-1,-1,-1,-1,-1,-1,-1,-1,-1,-1,-1,-1,-1,-1,-1,-1,-1,-1,-1,-1,-1,-1,-1,-1,-1,-1,-1,-1],"split_conditions":[4.0837318E-2,-4.7537737E-2,-3.4985706E-2,-1.10380305E-2,-5.340566E-3,1.3947546E-2,-3.7765514E-2,2.5619783E-2,5.7697725E-2,6.7082816E-3,-4.8569173E-2,-3.1220398E-3,-1.5401653E-2,4.209106E-2,7.850901E-2,5.2401952E-2,-3.077097E-2,3.241271E-2,4.0696867E-2,1.9150559E-2,-4.0890496E-2,-4.4246363E-3,7.8166425E-2,-4.722183E-2,-5.8576107E-2,-5.1766206E-2,2.3424584E-2,-1.5618904E-2,-3.0106077E-2,5.517335E-2,2.429892E-2,-3.604036E-2,3.314136E-2,5.515417E-4,-4.841568E-2,-1.9000801E-3,4.5955703E-2,3.7105974E-2,8.916839E-3,2.2623016E-2,-9.674203E-3,-3.4580167E-2,3.0364407E-2,-4.0987328E-2,7.1481583E-3,9.794418E-2,1.50846215E-2,2.2937177E-2,-2.2925662E-2,-1.917905E-1,-1.0310951E-1,7.767649E-2,5.5210486E-2,-1.4344217E-1,6.398033E-2,-3.9973702E-2,-5.311662E-2,4.8252527E-2,-7.619256E-2,-2.5631785E-2,1.3398972E-2,-5.5595557E-3,2.5543964E-3,1.8185402E-1,-2.3339958E-1,-1.9923587E-1,1.5402604E-2,2.3206262E-1,-2.503772E-1,-5.954604E-2,2.1188281E-1,-1.3592581E-1,7.7950016E-2,2.4400666E-1,-8.37197E-2,2.858799E-1,4.380664E-2,-1.8516085E-1,2.5496507E-1,1.7536944E-3,-1.740014E-1,1.8630254E-1,-2.0641074E-2,1.1174918E-1,-1.766294E-1,6.056459E-2,2.646815E-1,-2.0557256E-1,1.9390036E-1,3.39773E-2,-2.5693896E-1,2.2349933E-1,4.6236195E-2,-1.3237584E-1,1.2823461E-1,-2.715359E-1,1.577859E-1,3.5406572E-1,-8.664049E-2,-5.0958917E-2,3.665717E-1,-1.15029655E-1,5.5522287E-1,-3.3640403E-1,2.1216048E-1,3.5016805E-1,8.318892E-2,3.5277907E-2,-2.5688085E-1,-9.78771E-2,2.8920576E-1,-2.981863E-1,1.2163793E-1,-1.531578E-1,3.6045158E-1,-1.5173632E-1,-2.9169863E-1,3.6001778E-1,-1.4265993E-1,3.9582428E-1,-1.3546829E-2,3.0370358E-2,-2.4008098E-1],"split_indices":[48,24,150,13,221,132,173,44,330,296,297,10,274,157,257,330,90,44,149,49,0,251,309,41,229,159,304,18,378,1,309,313,77,214,98,239,149,12,91,5,120,173,15,205,129,197,109,97,315,0,336,232,14,0,232,137,144,99,122,376,349,359,186,0,0,0,0,0,0,0,0,0,0,0,0,0,0,0,0,0,0,0,0,0,0,0,0,0,0,0,0,0,0,0,0,0,0,0,0,0,0,0,0,0,0,0,0,0,0,0,0,0,0,0,0,0,0,0,0,0,0,0,0],"split_type":[0,0,0,0,0,0,0,0,0,0,0,0,0,0,0,0,0,0,0,0,0,0,0,0,0,0,0,0,0,0,0,0,0,0,0,0,0,0,0,0,0,0,0,0,0,0,0,0,0,0,0,0,0,0,0,0,0,0,0,0,0,0,0,0,0,0,0,0,0,0,0,0,0,0,0,0,0,0,0,0,0,0,0,0,0,0,0,0,0,0,0,0,0,0,0,0,0,0,0,0,0,0,0,0,0,0,0,0,0,0,0,0,0,0,0,0,0,0,0,0,0,0,0],"sum_hessian":[3.7567537E3,3.1998562E3,5.568974E2,1.0385792E3,2.161277E3,8.1208664E1,4.7568872E2,6.2972736E2,4.088519E2,1.1964702E3,9.6480676E2,5.0798744E1,3.0409922E1,8.827071E1,3.87418E2,5.2059515E2,1.0913215E2,2.607504E2,1.4810149E2,8.051026E2,3.9136765E2,1.2654574E2,8.3826105E2,2.4233913E1,2.6564829E1,2.4598492E1,5.8114305E0,7.009348E1,1.8177237E1,2.9451035E2,9.2907646E1,3.0627014E2,2.1432506E2,2.8455414E1,8.0676735E1,2.060781E2,5.4672295E1,1.1527962E2,3.2821873E1,5.997248E2,2.0537779E2,9.548728E1,2.9588037E2,5.497252E1,7.157322E1,6.103619E2,2.2789917E2,1.5491451E1,8.742462E0,1.297672E0,2.5267157E1,2.0849845E0,2.2513506E1,1.2981203E0,4.51331E0,5.557766E1,1.45158205E1,2.5605936E0,1.5616643E1,2.8521048E2,9.299883E0,1.5640286E1,7.7267365E1,8.130225E0,2.981399E2,8.7817444E1,1.26507614E2,2.4563444E0,2.599907E1,2.9711578E1,5.0965157E1,1.5039133E2,5.568678E1,4.294188E1,1.1730416E1,7.4836365E1,4.0443253E1,2.3051199E1,9.770673E0,2.985251E2,3.011997E2,1.1127988E2,9.4097916E1,3.6919086E1,5.856819E1,1.2957068E2,1.6630968E2,1.0182187E1,4.4790333E1,2.732959E1,4.424363E1,5.3252185E2,7.783999E1,6.0231117E1,1.6766805E2,9.463997E0,6.0274544E0,7.3351307E0,1.4073316E0,1.0554887E0,2.4211668E1,1.0689268E0,1.0160577E0,2.0942587E1,1.5709188E0,3.3844361E0,1.1288738E0,1.5396318E1,4.0181343E1,4.9167585E0,9.599062E0,1.511902E0,1.0486917E0,1.2018933E0,1.4414749E1,5.8324245E1,2.2688622E2,3.992932E0,5.3069506E0,5.409326E0,1.023096E1,2.2593721E1,5.467364E1],"tree_param":{"num_deleted":"0","num_feature":"384","num_nodes":"123","size_leaf_vector":"1"}},{"base_weights":[-2.17633E-3,2.413266E-1,-1.6883433E-1,-1.309625E-2,4.1780183E-1,-2.9951936E-1,2.2429271E-1,3.1115043E-1,-2.4891262E-1,6.1605453E-1,1.0454595E-1,-5.0704765E-1,-6.1799243E-2,4.9736372E-1,-3.3350326E-2,5.176627E-1,-1.6172566E-1,-5.1386833E-1,1.3554224E-1,-7.013665E-1,6.6189516E-1,4.5940253E-1,-1.6417085E-1,-1.6642635E-1,-6.813761E-1,1.3433339E-1,-4.1998023E-1,6.857278E-1,9.5449165E-2,1.3450038E-1,-5.544433E-1,6.364262E-1,-4.8422334E-1,-6.337413E-1,2.2047098E-1,-7.300799E-1,-7.93533E-3,7.4853057E-1,-9.5570646E-2,-1.0695248E0,2.8391296E-1,7.5895685E-1,1.597324E-1,7.547173E-1,6.438717E-4,3.864391E-1,-4.286227E-1,5.127554E-1,-3.1283358E-1,1.1209931E-4,-7.4542135E-1,-1.2152717E-1,4.8563743E-1,-1.4493221E-1,-8.469339E-1,7.737984E-1,-2.1807833E-1,-2.1220307E-1,8.470049E-1,-3.5292265E-1,3.6003235E-1,7.198033E-1,-7.484461E-1,2.3214494E-1,4.8568016E-3,-2.5545892E-1,2.6007134E-1,-2.6063105E-1,1.447131E-1,-8.56459E-2,2.2080849E-1,-2.5600618E-1,5.6992162E-2,-1.21096365E-1,1.9617383E-1,-1.2588188E-1,2.815382E-1,1.11887746E-1,-1.5770511E-1,-3.7997738E-1,5.0057657E-2,-1.2582251E-1,2.9989776E-1,3.0760938E-1,1.6866164E-1,-1.8890855E-1,1.4354794E-1,3.078378E-1,5.5613447E-2,-2.6063916E-1,9.493311E-2,-2.38085E-2,2.4036011E-1,-1.8764107E-1,4.0650994E-2,-6.1289955E-2,2.3832583E-1,-2.450436E-1,-4.5733273E-2,-1.1442352E-1,2.256592E-1,-2.786409E-1,-1.5863906E-1,7.328913E-2,-1.2549548E-1,-6.9040176E-3,2.0537789E-1,-1.8064146E-1,8.67066E-2,-2.9494902E-1,-5.3465195E-2,2.4475892E-1,-1.7446156E-1,1.5104419E-1,-3.5392064E-1,-2.0989646E-1,8.0415204E-2,-2.9866883E-1,2.9870087E-1,-2.065948E-1,2.3153904E-1,1.8003938E-1,-1.3584855E-2,3.1301564E-1,-1.9367014E-1,-2.5908893E-1,1.8697217E-1],"categories":[],"categories_nodes":[],"categories_segments":[],"categories_sizes":[],"default_left":[0,0,0,0,0,0,0,0,0,0,0,0,0,0,0,0,0,0,0,0,0,0,0,0,0,0,0,0,0,0,0,0,0,0,0,0,0,0,0,0,0,0,0,0,0,0,0,0,0,0,0,0,0,0,0,0,0,0,0,0,0,0,0,0,0,0,0,0,0,0,0,0,0,0,0,0,0,0,0,0,0,0,0,0,0,0,0,0,0,0,0,0,0,0,0,0,0,0,0,0,0,0,0,0,0,0,0,0,0,0,0,0,0,0,0,0,0,0,0,0,0,0,0,0,0,0,0],"id":12,"left_children":[1,3,5,7,9,11,13,15,17,19,21,23,25,27,29,31,33,35,37,39,41,43,45,47,49,51,53,55,57,59,61,63,65,67,69,71,73,75,77,79,81,83,85,87,89,91,93,95,97,99,101,103,105,107,109,111,113,115,117,119,121,123,125,-1,-1,-1,-1,-1,-1,-1,-1,-1,-1,-1,-1,-1,-1,-1,-1,-1,-1,-1,-1,-1,-1,-1,-1,-1,-1,-1,-1,-1,-1,-1,-1,-1,-1,-1,-1,-1,-1,-1,-1,-1,-1,-1,-1,-1,-1,-1,-1,-1,-1,-1,-1,-1,-1,-1,-1,-1,-1,-1,-1,-1,-1,-1,-1],"loss_changes":[1.4352493E2,6.452776E1,1.0793801E2,4.5153255E1,5.2632523E1,7.773003E1,3.691124E1,2.4366652E1,3.4891968E1,3.1834473E1,3.155062E1,4.9850113E1,5.1748093E1,1.9212734E1,2.3757128E1,2.09304E1,1.3912928E1,2.2154964E1,1.9942837E1,6.8156643E0,2.4370804E1,1.9305876E1,2.7624132E1,2.8616634E1,2.4278046E1,4.286389E1,3.0479687E1,1.3957092E1,1.923704E1,2.272866E1,1.6894638E1,1.3228001E1,1.0135363E1,9.447528E0,1.1408223E1,1.6258667E1,1.6414679E1,8.939438E0,2.0901855E1,3.4467087E0,3.27534E0,2.1482117E1,2.1101822E1,